590 300
the -0.067463756 0.37227023 -0.14391336 0.13603462 -0.16231415 -0.37000006 0.26299182 0.7266851 0.051985927 -0.3423072 0.13538474 -0.42880955 -0.1586917 -0.0881125 -0.26412082 -0.27494952 0.19393295 0.06907413 0.115751676 -0.09958931 -0.17592205 0.05723597 0.19919203 0.12868758 0.06947713 0.14121687 -0.5093424 0.053378705 -0.19670096 -0.33452955 0.12145507 -0.22081982 0.25534496 0.07274478 -0.10323071 0.10138355 0.069162205 -0.36877218 -0.14756826 0.014252119 -0.16933253 0.049800888 -0.1493995 -0.33353803 0.31409526 0.33637485 0.08229285 0.1945014 -0.06696874 0.29659685 0.10061467 0.026737977 -0.09009624 0.19363563 -0.07204378 0.30688274 0.06787785 -0.045010954 -0.008783273 -0.07991724 -0.33160475 -0.16016512 -0.13915281 0.27149582 -0.07270668 0.18150894 -0.045539573 0.16025499 -0.0900113 0.0003937467 0.094051026 0.15276128 0.38205257 -0.35546738 0.17343464 0.14932387 -0.22166859 0.09507664 -0.20892906 0.24659218 -0.20793843 -0.1323044 0.05399356 0.6341681 0.06202107 -0.08614117 0.08365581 -0.04489663 0.3136204 0.13501595 0.33644953 -0.046264928 0.2024122 0.14259167 0.29424468 0.39070484 0.3271325 -0.23852327 -0.11099272 0.40753394 -0.09010612 -0.018646808 0.13719219 0.11446282 0.11221127 -0.33190247 0.01137842 0.061982516 -0.45600894 0.06511839 -0.268658 -0.10618175 -0.20585205 0.19791311 0.106871374 0.20335849 0.07313898 0.075448744 0.395536 -0.24905846 0.13969551 0.25177878 0.039470166 -0.068393916 -0.21138209 0.21114688 -0.057886384 -0.3718894 -0.054484647 0.34233916 0.13103278 0.47839442 -0.0056942375 -0.35087344 0.053615037 0.14681017 -0.24335393 -0.20852867 -0.290604 -0.29755402 0.12289934 -0.39155233 -0.024713354 0.21164933 0.14014506 -0.30984136 -0.36160266 -0.23266998 0.18099323 -0.26187643 0.058150973 -0.54499924 -0.051498443 -0.15388705 0.10774605 0.31039482 -0.29039904 -0.092261106 0.042560425 0.3380405 0.14365904 0.21956551 -0.5590406 0.22677618 -0.22923228 0.19058962 -0.079165645 0.041842826 0.064633206 0.45910585 -0.29033422 -0.10628618 0.23571426 0.14556874 0.104775846 0.15510827 -0.007013715 -0.15760536 0.07563713 -0.18862037 -0.19510567 0.22643474 -0.25921965 0.033718396 -0.110700786 0.09104231 0.5836325 0.353205 0.09553045 -0.3435126 0.25783205 -0.058146052 -0.35544404 0.007016265 0.10502575 -0.24108303 -0.019697389 -0.32860243 -0.10743511 0.023808315 -0.30513948 0.2055677 0.025619928 -0.18317103 -0.11159318 -0.096474655 -0.07850331 0.1245295 0.060708575 0.0180267 0.0011192181 -0.27317798 -0.14065214 -0.19204119 0.01043452 -0.41232783 0.050211813 -0.61109924 -0.39187634 -0.38791737 0.2029565 0.039280612 -0.19366731 -0.18247035 -0.11953153 -0.19793794 0.022866448 -0.19704302 -0.35369483 0.13028309 0.2484239 -0.08171477 -0.19912258 0.11577601 -0.22817005 0.13224174 -0.03494496 -0.1523974 -0.09692207 -0.5404224 0.09744087 -0.12055366 -0.2355957 -0.01056654 0.0012796025 -0.35183066 -0.10805002 -0.04987887 0.12655158 0.19984679 0.11383381 0.18886568 0.04372284 -0.004198114 -0.5898476 -0.32284725 0.64375794 0.0838738 -0.5507901 -0.11963577 0.064257964 0.027502147 0.16288108 -0.40066966 -0.508724 0.030928228 0.124224216 0.123134725 -0.34219274 0.10928609 -0.047542922 -0.115201816 0.03781363 0.043184496 0.21585397 0.2330673 0.2518935 0.17761506 -0.36225018 -0.025946397 0.08649142 0.050426137 0.03937027 0.1992872 -0.020607313 0.10112726 -0.3923309 0.18640427 -0.12011794 0.27290738 0.10291911 0.46571612 0.24889296 -0.094858974 0.35278147 0.38530222 0.05746603 -0.19378272 0.16885926 -0.3610302
to -0.06177111 0.33278888 -0.12982057 0.11707599 -0.13997185 -0.32570276 0.23121615 0.64277095 0.048474666 -0.30509847 0.12090237 -0.37802023 -0.13786635 -0.08197795 -0.22789842 -0.24500719 0.17244317 0.058625527 0.10309238 -0.083132215 -0.15622167 0.047476597 0.17723209 0.11649696 0.055313867 0.12694645 -0.44859305 0.046351057 -0.17085873 -0.29525718 0.11077328 -0.19752972 0.22140828 0.06584121 -0.08803724 0.09392686 0.062874295 -0.32704642 -0.13448283 0.016601603 -0.14473672 0.043986995 -0.12658058 -0.29401278 0.2796036 0.29950163 0.076867685 0.16934113 -0.06145068 0.25781268 0.0935696 0.023481313 -0.08109396 0.16715916 -0.06948415 0.2735823 0.05925896 -0.034213983 -0.0049445867 -0.07652766 -0.29207298 -0.13974917 -0.120373406 0.24174194 -0.061731588 0.15782773 -0.041140698 0.14284746 -0.077736266 -0.0049973605 0.0829496 0.13110447 0.33754057 -0.30643922 0.15058206 0.13009176 -0.19943891 0.086772695 -0.18600662 0.22297776 -0.18513848 -0.11609239 0.046809677 0.5584223 0.05681326 -0.07783999 0.07507882 -0.03556027 0.27660063 0.112876974 0.2929073 -0.041232653 0.1763446 0.124445535 0.25988746 0.3433562 0.29486844 -0.2112842 -0.09980844 0.356397 -0.079957284 -0.017693255 0.116631754 0.09960017 0.09730404 -0.287937 0.009502119 0.05272843 -0.4033321 0.061994866 -0.23910378 -0.090148784 -0.18181936 0.17332423 0.092119396 0.1751612 0.06290265 0.06636556 0.35275725 -0.22071126 0.121744305 0.22053331 0.03625293 -0.05408682 -0.18922973 0.18570694 -0.049234767 -0.3275266 -0.051574875 0.3001097 0.11443928 0.42431426 -0.004457348 -0.31248036 0.048296433 0.12603986 -0.21688133 -0.18470052 -0.26058343 -0.26559854 0.1062411 -0.34685576 -0.021886751 0.1904233 0.12720197 -0.27912298 -0.32152763 -0.20540604 0.16236804 -0.23503844 0.051733386 -0.47590706 -0.040865064 -0.13899381 0.09440857 0.2690038 -0.26403022 -0.08664258 0.03698666 0.29459307 0.13127527 0.190941 -0.49278522 0.20272785 -0.20519246 0.1659156 -0.06970152 0.04206029 0.053349275 0.40715718 -0.2571861 -0.08856828 0.20602006 0.12722676 0.09367571 0.14136958 -0.0053538703 -0.13555859 0.06890549 -0.1698278 -0.17317897 0.19617136 -0.23079894 0.030311722 -0.10075106 0.07871728 0.51908016 0.31545156 0.07981992 -0.3029329 0.22833388 -0.052703936 -0.31348538 0.008580396 0.09377656 -0.21673611 -0.016818004 -0.28820083 -0.09217495 0.019860495 -0.27417687 0.18112133 0.02511881 -0.16309428 -0.10590381 -0.0883268 -0.066594854 0.11072895 0.054175977 0.011541577 1.2668131e-05 -0.24107066 -0.12973791 -0.17346305 0.0059604505 -0.3661621 0.039722096 -0.5464841 -0.3450006 -0.34219477 0.17862259 0.035762094 -0.16780755 -0.15540625 -0.11019681 -0.17535432 0.017836988 -0.17993364 -0.31095892 0.11519439 0.22007568 -0.07112242 -0.1749353 0.09981715 -0.19862078 0.12180584 -0.029414464 -0.13402557 -0.08350481 -0.47860855 0.09230837 -0.109159544 -0.2099946 -0.012465327 -0.00041345964 -0.3138788 -0.09701457 -0.03973014 0.11268142 0.1773443 0.100830704 0.16485786 0.044035334 0.0034454758 -0.52158844 -0.28211626 0.5714203 0.072483756 -0.48832297 -0.10721679 0.058391318 0.026449027 0.14436086 -0.35809037 -0.4464337 0.024091454 0.107677735 0.1092982 -0.3026637 0.091665216 -0.04182354 -0.10142313 0.03602616 0.039476827 0.19210833 0.20687315 0.2164936 0.15706229 -0.31948173 -0.020808788 0.07849781 0.045034505 0.038942005 0.17273252 -0.020200599 0.08797805 -0.3463085 0.17063767 -0.10927161 0.24191086 0.09594861 0.41322958 0.21454176 -0.08312782 0.31267965 0.34226954 0.047990914 -0.1746805 0.14902765 -0.3194488
<bos> -0.04776098 0.28035936 -0.111220784 0.100844964 -0.12109121 -0.2772587 0.19936168 0.5484979 0.039257325 -0.2591652 0.10225047 -0.32465592 -0.119416855 -0.06602812 -0.1996687 -0.209622 0.14798754 0.053973936 0.09065944 -0.07599041 -0.13464588 0.040572904 0.15316702 0.09670444 0.050788727 0.10893795 -0.38660252 0.036192723 -0.14666297 -0.2535092 0.09706402 -0.16463125 0.19181183 0.05789376 -0.07852867 0.07808347 0.04777161 -0.280945 -0.11459388 0.007858312 -0.12240282 0.034145303 -0.10753884 -0.2535181 0.23857172 0.2588989 0.062385995 0.14232957 -0.05374188 0.22076827 0.07823697 0.017253755 -0.06978444 0.1474873 -0.06045264 0.23140906 0.049333464 -0.035357535 -0.008378636 -0.06736432 -0.25054744 -0.12303056 -0.10288644 0.20753637 -0.05552623 0.13885815 -0.03719236 0.11799677 -0.06898303 -0.0032758806 0.06928791 0.116117276 0.2882643 -0.26379552 0.13207686 0.11058461 -0.16767684 0.074439764 -0.15834552 0.19283558 -0.15472941 -0.103377685 0.036791444 0.47839248 0.04842587 -0.067973025 0.064989224 -0.03444731 0.23481444 0.10000668 0.25259045 -0.03495214 0.15026471 0.10742354 0.2191625 0.29513696 0.25349182 -0.18063232 -0.08509698 0.30868357 -0.06358041 -0.017179735 0.105128124 0.088568665 0.08123595 -0.24874781 0.00901017 0.043342862 -0.34606832 0.04896874 -0.20363867 -0.07858176 -0.1522158 0.14702761 0.080515265 0.15290913 0.05660479 0.05498751 0.2992526 -0.19108 0.10463431 0.19433187 0.029225998 -0.052503277 -0.16490906 0.16164689 -0.043584537 -0.28120875 -0.043495856 0.26059017 0.093660876 0.36590156 -0.004983153 -0.26748243 0.038105477 0.109329425 -0.18746738 -0.1605191 -0.2263364 -0.22834979 0.09364702 -0.2969197 -0.016384346 0.16270241 0.11060199 -0.23956068 -0.27975556 -0.17757595 0.14033118 -0.20008756 0.040160272 -0.41027397 -0.034829322 -0.11963256 0.07980398 0.23657022 -0.22647433 -0.0701238 0.032416098 0.25751704 0.11406993 0.16538572 -0.42592618 0.17675582 -0.17533772 0.14511177 -0.06565561 0.036329117 0.04703443 0.3452895 -0.21821165 -0.07874518 0.17967245 0.10794627 0.07789537 0.12062595 -0.0006628695 -0.12112592 0.057308853 -0.14593782 -0.14885035 0.17065749 -0.20214076 0.027390983 -0.0839793 0.06866786 0.4457057 0.27384323 0.07426052 -0.25984016 0.19586962 -0.0451946 -0.27358457 0.010506327 0.0794375 -0.18371429 -0.01724233 -0.2503384 -0.07834591 0.014882696 -0.23604444 0.15850604 0.022951167 -0.1346305 -0.085586205 -0.074255414 -0.054971386 0.09285216 0.046261963 0.013268475 0.003225019 -0.20801623 -0.10594021 -0.14730668 0.00865602 -0.31171438 0.033979308 -0.46854582 -0.29810047 -0.29437804 0.1567342 0.03427428 -0.14339809 -0.13763039 -0.0913544 -0.148529 0.014443232 -0.15429698 -0.26760617 0.094559945 0.19000413 -0.060382754 -0.14706978 0.09185356 -0.17075834 0.10330597 -0.027761297 -0.11488977 -0.07212736 -0.41438845 0.07553118 -0.09018136 -0.17863637 -0.011385192 -0.00046363747 -0.26941448 -0.08281855 -0.03500397 0.09567459 0.15192978 0.08626579 0.14435263 0.035313703 -0.0012177534 -0.44483986 -0.24405526 0.48859966 0.06488379 -0.41537592 -0.09189811 0.045107763 0.0208707 0.12465589 -0.30623978 -0.38835666 0.019630047 0.0904874 0.09500094 -0.26183438 0.082553945 -0.040403657 -0.08919224 0.030531254 0.035038367 0.16227841 0.17307307 0.18721782 0.13176768 -0.2782898 -0.020075671 0.06583393 0.03799925 0.034233913 0.15201306 -0.015114949 0.07920123 -0.29640573 0.14145172 -0.094101615 0.20881455 0.07780424 0.35306427 0.18795872 -0.0718401 0.26956597 0.29553917 0.042547133 -0.14514108 0.12923004 -0.274442
<eos> -0.056545373 0.30222788 -0.12200074 0.111579694 -0.13099536 -0.3024456 0.21120687 0.5937963 0.042517956 -0.28035575 0.10903891 -0.351736 -0.12876621 -0.07361531 -0.21504833 -0.22268273 0.15816051 0.052650303 0.099384464 -0.08114519 -0.14565793 0.04626469 0.16006187 0.104034245 0.057310462 0.1151756 -0.4192108 0.044425458 -0.15940295 -0.27432978 0.105123125 -0.17940152 0.20762403 0.064788796 -0.08543991 0.08520781 0.054689094 -0.29866394 -0.11987817 0.013826316 -0.13360953 0.040879186 -0.120093435 -0.27277878 0.25601318 0.27655664 0.068738416 0.15919732 -0.055224214 0.2419663 0.08541372 0.024224397 -0.0727244 0.16058557 -0.060393225 0.25017107 0.05247997 -0.035487544 -0.004314515 -0.06959074 -0.2711524 -0.12839955 -0.11042815 0.22330102 -0.060483117 0.14632435 -0.039162774 0.12581156 -0.07120322 -0.002797819 0.076035954 0.12468535 0.3112073 -0.28974354 0.14034005 0.1199247 -0.18196765 0.07674887 -0.16747324 0.20533966 -0.16813597 -0.11047511 0.041591737 0.51814145 0.05361219 -0.072578 0.06371744 -0.035038374 0.2586778 0.109755196 0.2707657 -0.035350423 0.16530468 0.11886914 0.24000916 0.31567848 0.26722088 -0.19083159 -0.08814024 0.33246875 -0.068756 -0.01703788 0.112398095 0.08920899 0.08612382 -0.2712486 0.0065722503 0.05016658 -0.3729118 0.0524278 -0.21608308 -0.08571468 -0.1626061 0.15811548 0.08809596 0.16545503 0.05933354 0.058545485 0.32585552 -0.20547071 0.112302646 0.20607466 0.033019423 -0.054021113 -0.17665821 0.1737471 -0.045778453 -0.30667105 -0.041253574 0.27902296 0.10206774 0.39291304 -0.0013283804 -0.2832057 0.044600584 0.120019734 -0.19928417 -0.17328197 -0.24307941 -0.24668506 0.09758461 -0.31902415 -0.019261321 0.17582463 0.11355727 -0.25827056 -0.29981685 -0.19057214 0.14512014 -0.21501713 0.044076376 -0.44211498 -0.044180132 -0.1261378 0.08956009 0.25125796 -0.24243377 -0.077948555 0.037049524 0.275817 0.11697605 0.17767452 -0.4560123 0.18777832 -0.19241416 0.1551825 -0.069956556 0.03341767 0.052230813 0.37286454 -0.23488161 -0.08117677 0.19000232 0.12001221 0.08603672 0.13231212 -0.0023193548 -0.13168149 0.05880553 -0.15146562 -0.15545191 0.18707362 -0.21201213 0.031475518 -0.09441071 0.07629742 0.47632015 0.2931393 0.07921123 -0.2774156 0.21284309 -0.04704032 -0.2918723 0.011214027 0.084442645 -0.19739445 -0.01425232 -0.26940116 -0.08403536 0.014684105 -0.24761684 0.16981965 0.023662917 -0.1466872 -0.0938267 -0.08343759 -0.063549295 0.103727885 0.05024146 0.01116413 0.0038779236 -0.22107713 -0.11794992 -0.15800335 0.008082707 -0.33797154 0.03769668 -0.5055763 -0.3195054 -0.3184699 0.16678374 0.0303356 -0.15705383 -0.14895037 -0.10350637 -0.16341129 0.013876433 -0.16051768 -0.2868355 0.10515272 0.20086193 -0.0659371 -0.16050978 0.09515544 -0.18350916 0.10968518 -0.028749244 -0.12555844 -0.081961684 -0.44407442 0.07902499 -0.099411495 -0.1913891 -0.008508483 -0.00087515544 -0.29016533 -0.08570794 -0.03906663 0.10372365 0.16710897 0.093379416 0.1532252 0.040216938 0.0012214758 -0.4816571 -0.26192653 0.52574223 0.07178547 -0.44919434 -0.09757914 0.051536527 0.024504978 0.13090226 -0.3295485 -0.4164121 0.024028469 0.10166938 0.10284103 -0.28127414 0.08857929 -0.04108565 -0.09273783 0.030893743 0.036247727 0.1791792 0.19085729 0.20154904 0.14705329 -0.29698074 -0.022004602 0.07015143 0.04697153 0.03200457 0.16279654 -0.016048945 0.08446814 -0.32164198 0.15265258 -0.09771064 0.22555722 0.08773834 0.37854752 0.19802932 -0.07535145 0.28921893 0.3129295 0.04238053 -0.16002172 0.13515386 -0.2938112
and -0.059277568 0.32506043 -0.12536573 0.11322594 -0.13820292 -0.32130802 0.22884998 0.6391009 0.04998991 -0.30199197 0.11408723 -0.3794192 -0.14146349 -0.07989329 -0.23175198 -0.24466605 0.16875847 0.061304484 0.10661968 -0.08556984 -0.15811649 0.04864396 0.17344277 0.11508168 0.05883588 0.12747832 -0.45016816 0.04714048 -0.17106691 -0.28953123 0.10746102 -0.19363719 0.22183098 0.0665204 -0.091248065 0.08703931 0.056029752 -0.32514128 -0.12849967 0.013680816 -0.14586297 0.043984093 -0.12873666 -0.29107323 0.2719544 0.29265985 0.07812162 0.16673402 -0.0629359 0.25958937 0.09360724 0.020348165 -0.07756279 0.16737212 -0.06564297 0.27090275 0.05677307 -0.03676148 -0.0034370949 -0.0713106 -0.2946137 -0.14294897 -0.119318396 0.2416713 -0.065381266 0.15909925 -0.03669639 0.13903433 -0.08041959 -0.0008984091 0.08336372 0.13424279 0.33758113 -0.3105117 0.15072532 0.13113214 -0.19540372 0.08111286 -0.18551455 0.22012335 -0.18518892 -0.115712576 0.045089778 0.5589153 0.05526174 -0.07609199 0.07485049 -0.03912137 0.27481225 0.11667749 0.29509166 -0.04102021 0.17893437 0.122691005 0.25589272 0.3421168 0.29394966 -0.20562735 -0.095453635 0.3591058 -0.08029549 -0.014407129 0.116129234 0.098306164 0.09399016 -0.29100978 0.006756878 0.049558606 -0.4014588 0.058543496 -0.23767617 -0.08867647 -0.1815771 0.16975357 0.096995324 0.17834999 0.065584116 0.065742195 0.34928083 -0.22032633 0.12382184 0.22398101 0.03568384 -0.05474693 -0.18515056 0.18794006 -0.052885283 -0.3311374 -0.046651732 0.3010582 0.113884464 0.4239715 -0.0015685115 -0.30955938 0.04773359 0.12655783 -0.21915919 -0.18243141 -0.25892836 -0.26596367 0.10426464 -0.34461388 -0.016678082 0.18774636 0.123305015 -0.27749482 -0.32280368 -0.20492496 0.16109398 -0.23227632 0.04959142 -0.47548792 -0.047891535 -0.13588563 0.09474415 0.27189952 -0.25679597 -0.083721235 0.036476128 0.29864794 0.13046685 0.19459327 -0.48943907 0.20450798 -0.20048663 0.16562407 -0.0692616 0.04049786 0.056000743 0.40154454 -0.25493354 -0.092281364 0.20274831 0.12688173 0.095167585 0.14190453 -0.004999149 -0.13620831 0.06646607 -0.16606794 -0.16855209 0.19608599 -0.22740938 0.033385497 -0.0964358 0.08191841 0.51692605 0.31662747 0.08269329 -0.30283993 0.22914699 -0.048463237 -0.31341597 0.009473943 0.09067781 -0.21466255 -0.016277937 -0.2896484 -0.093731806 0.023067063 -0.26669303 0.1831551 0.025375599 -0.1623462 -0.097918786 -0.089238115 -0.066006795 0.11034906 0.059074067 0.010311891 0.004999561 -0.24259713 -0.12929294 -0.17239662 0.0049227853 -0.3592856 0.044822317 -0.54280585 -0.34152022 -0.34126878 0.18349211 0.037776183 -0.16963781 -0.15915115 -0.10998021 -0.17150417 0.018181566 -0.17613634 -0.307686 0.11169312 0.21430229 -0.06995569 -0.17292787 0.10019761 -0.19989896 0.11480451 -0.027209817 -0.13319604 -0.08519733 -0.4733379 0.09135099 -0.10671353 -0.20503995 -0.009762296 0.0012066049 -0.30975804 -0.097193144 -0.043739084 0.11336526 0.17892127 0.101152636 0.16881318 0.043040976 -0.004144263 -0.51803696 -0.28511015 0.5701351 0.076928176 -0.48355865 -0.10269752 0.052330893 0.023988552 0.14180225 -0.3523 -0.4452219 0.025966613 0.106484726 0.10677667 -0.29985535 0.093793534 -0.044820376 -0.10642801 0.03460713 0.03743472 0.19089632 0.20091482 0.2224995 0.15635233 -0.31829086 -0.021549597 0.07320926 0.048281588 0.037792332 0.17287932 -0.017751733 0.09097271 -0.34139878 0.16852392 -0.109232225 0.23861936 0.09484973 0.4099144 0.21829686 -0.08016257 0.30962476 0.33650622 0.049465418 -0.16787967 0.14562038 -0.3135269
he -0.06148776 0.3315935 -0.12946264 0.12015448 -0.14387926 -0.3255996 0.22817786 0.64115405 0.045020137 -0.29878053 0.11589467 -0.3830198 -0.14071615 -0.077999465 -0.23319215 -0.24630189 0.16577527 0.062764406 0.10668445 -0.08358217 -0.15889049 0.05009607 0.17247866 0.11281946 0.055743206 0.12567183 -0.45143837 0.047182273 -0.17185423 -0.29913655 0.1084706 -0.19894442 0.22519006 0.06978641 -0.09141952 0.093718015 0.06099709 -0.32710958 -0.13478613 0.016976371 -0.14241207 0.040317502 -0.13127416 -0.28951108 0.27777883 0.30134144 0.07267208 0.16621548 -0.05936111 0.25499392 0.089901656 0.022538165 -0.073200986 0.17313902 -0.06766106 0.2755716 0.061761267 -0.03836902 -0.0033670818 -0.07262414 -0.2903632 -0.14290212 -0.12438877 0.240357 -0.06004028 0.15807818 -0.04202451 0.1432089 -0.075557776 0.0011499966 0.07816123 0.13260603 0.34002692 -0.31084132 0.1546493 0.13508104 -0.19752547 0.082882985 -0.18385185 0.21962373 -0.18621425 -0.1189621 0.044642914 0.5576404 0.054805357 -0.07521656 0.06939104 -0.04091725 0.28016457 0.11918132 0.29348662 -0.03991966 0.17513739 0.122351825 0.25338167 0.34587994 0.29455188 -0.20514084 -0.09662316 0.35995913 -0.07692897 -0.022000588 0.120722964 0.10005273 0.09818446 -0.28934324 0.007685795 0.054636497 -0.40029293 0.059205174 -0.23794398 -0.094880246 -0.18152219 0.17643192 0.090157844 0.18011105 0.06127559 0.064153366 0.35039213 -0.22182782 0.12524666 0.22543357 0.034025315 -0.055579007 -0.18758732 0.18895924 -0.046662223 -0.3325817 -0.05014549 0.29837134 0.11311023 0.42213383 -0.004978399 -0.3115361 0.046120442 0.12927628 -0.21417879 -0.18702726 -0.26319346 -0.26963726 0.10519609 -0.3468322 -0.020963836 0.18979077 0.12699696 -0.27521935 -0.3256093 -0.20772712 0.16350862 -0.2309336 0.048301734 -0.47947147 -0.044134628 -0.13601795 0.09647283 0.2725024 -0.26212722 -0.08649755 0.03478198 0.2963875 0.1311029 0.19460613 -0.49334684 0.20415448 -0.20441163 0.16809443 -0.076559015 0.041664388 0.057299163 0.40566516 -0.25250128 -0.08787013 0.20796421 0.124987744 0.09270155 0.13515413 -0.0020342036 -0.14067987 0.069063954 -0.16708069 -0.17011334 0.1956513 -0.23535387 0.028171936 -0.10132258 0.08087749 0.5135865 0.31305867 0.08157767 -0.30248433 0.22952251 -0.049495704 -0.3122284 0.012349912 0.09066407 -0.21069404 -0.022667881 -0.2895673 -0.09523228 0.020105265 -0.27028412 0.18304035 0.02560212 -0.16288893 -0.09882469 -0.089826405 -0.06464836 0.1106759 0.054625288 0.012155292 0.000612706 -0.24216801 -0.1233278 -0.17107163 0.009532824 -0.36628625 0.042681657 -0.54448056 -0.34119794 -0.3447612 0.18406479 0.033606913 -0.17320839 -0.16043638 -0.10834852 -0.17556667 0.016348144 -0.17894632 -0.31117925 0.11264101 0.21711145 -0.06638642 -0.17575304 0.10129822 -0.19658525 0.12175086 -0.035696667 -0.13391563 -0.08309036 -0.47877944 0.09184298 -0.111008324 -0.20504351 -0.010514773 0.0005036194 -0.31444505 -0.098330565 -0.04400871 0.11373611 0.17851873 0.10276799 0.1716801 0.04460629 -0.0010765265 -0.51388735 -0.28310782 0.56882215 0.076396294 -0.4858379 -0.102323525 0.053394258 0.023801386 0.13869254 -0.35455376 -0.44517267 0.023122875 0.10780229 0.108957864 -0.29685047 0.0923543 -0.042369153 -0.10604478 0.0345338 0.040802848 0.19489233 0.20570156 0.22336577 0.15814243 -0.31699723 -0.01886278 0.07416334 0.0507634 0.038322147 0.175794 -0.017115582 0.093145706 -0.34093788 0.16853568 -0.10488965 0.24053647 0.096252665 0.41148484 0.21976706 -0.08368257 0.31159893 0.34304473 0.047541622 -0.17256454 0.14929642 -0.31934416
his -0.051350083 0.30502674 -0.12331636 0.11114285 -0.12950572 -0.30695352 0.21809286 0.60478336 0.041073717 -0.2846683 0.107837714 -0.35731173 -0.13029477 -0.071007304 -0.2149624 -0.22831841 0.16089363 0.060068242 0.102629244 -0.07788232 -0.14537497 0.042409454 0.16218156 0.10417108 0.057601895 0.11753539 -0.42625043 0.045215044 -0.15806 -0.27781013 0.107560396 -0.18377994 0.20807052 0.06275849 -0.08424839 0.08419271 0.056396548 -0.30305904 -0.12012874 0.009821616 -0.13845472 0.037771128 -0.11813605 -0.27240068 0.2575225 0.28088114 0.06914564 0.15953133 -0.053906873 0.2424386 0.085352816 0.018608829 -0.074720934 0.15932103 -0.06176957 0.26064715 0.05355569 -0.034584507 -0.0023597244 -0.068760395 -0.2743103 -0.12954192 -0.11152394 0.23076734 -0.062490936 0.1536948 -0.0353452 0.13474895 -0.0742745 -0.0006804468 0.07910327 0.122889645 0.32045057 -0.2909881 0.14571649 0.122546636 -0.18709011 0.08205868 -0.17652667 0.20459811 -0.17498486 -0.11138421 0.04159373 0.52662003 0.05688827 -0.07173762 0.06929909 -0.03472193 0.25942203 0.105483115 0.28086144 -0.038882732 0.16848981 0.12090615 0.24169882 0.323823 0.27610523 -0.19662313 -0.09115419 0.3361074 -0.07070789 -0.014585817 0.1132628 0.095708214 0.08693177 -0.27091962 0.01319116 0.046897255 -0.37659204 0.05349046 -0.2227108 -0.084026 -0.16580026 0.16228314 0.0885466 0.16709211 0.062094152 0.058577187 0.32703215 -0.20730281 0.1142333 0.21252353 0.029166136 -0.054875877 -0.18020163 0.17666496 -0.04778848 -0.31342584 -0.043205865 0.28498554 0.104466476 0.3964979 -0.002937331 -0.2905609 0.039385132 0.12345935 -0.20650977 -0.17639405 -0.24591626 -0.25238895 0.09942067 -0.3203119 -0.015917305 0.17881477 0.1177546 -0.2588336 -0.3037521 -0.19617951 0.1520902 -0.21671054 0.043099795 -0.45083717 -0.046657454 -0.13029365 0.09091863 0.25854924 -0.24205554 -0.077473305 0.038196873 0.27890685 0.12082799 0.17756654 -0.46251172 0.1899019 -0.19065887 0.15889321 -0.0708612 0.035729434 0.047931753 0.37744218 -0.24066629 -0.084643014 0.19503906 0.11659048 0.08535711 0.13056341 -0.0020078165 -0.12831256 0.06104587 -0.15648825 -0.16191432 0.186861 -0.21621625 0.029989263 -0.08880415 0.07504566 0.48476994 0.29444858 0.077420294 -0.28628826 0.21322748 -0.046930335 -0.2992727 0.011952712 0.08406931 -0.20413472 -0.020895446 -0.26934865 -0.0848421 0.021967217 -0.25279975 0.16992284 0.022408169 -0.14773095 -0.0933133 -0.08109574 -0.0644354 0.10298105 0.05536739 0.012491345 0.0034993594 -0.2259299 -0.11742665 -0.15803257 0.0075483825 -0.34280676 0.037680767 -0.50904346 -0.32552832 -0.3209003 0.17040412 0.03568608 -0.16339742 -0.14608446 -0.1015569 -0.16516323 0.018070552 -0.16614108 -0.29492125 0.10421525 0.20373718 -0.06804597 -0.16294356 0.0974038 -0.18804362 0.11177463 -0.02720225 -0.12347984 -0.079594396 -0.4469693 0.085082166 -0.1010014 -0.1977548 -0.007057308 -0.0010416106 -0.2979506 -0.09267733 -0.04169572 0.10750155 0.16854033 0.095520705 0.15505277 0.039894477 -0.0019523983 -0.48940444 -0.26314792 0.53593355 0.06936737 -0.45902294 -0.09999231 0.052297164 0.027858874 0.13522674 -0.33709338 -0.42422563 0.024865568 0.09981095 0.100089 -0.28067657 0.0874195 -0.037734497 -0.097977154 0.028477656 0.03528402 0.18248843 0.19470705 0.20777406 0.14822829 -0.30302626 -0.021836102 0.06907627 0.045318052 0.03392536 0.16353397 -0.020903202 0.088912085 -0.32341734 0.15685166 -0.10395654 0.22917445 0.08435386 0.3863827 0.20489872 -0.0736785 0.2934326 0.31857696 0.0479937 -0.1612607 0.13510323 -0.29959694
of -0.058657035 0.335203 -0.12693585 0.121438645 -0.14486082 -0.3255383 0.23094852 0.6462259 0.047568608 -0.3021665 0.11990204 -0.3818245 -0.13699746 -0.0799682 -0.23607086 -0.24777554 0.17363453 0.059329517 0.10492924 -0.08501435 -0.16028573 0.046726044 0.17549062 0.11475538 0.06025767 0.12951799 -0.4565945 0.046323273 -0.17038351 -0.2967298 0.113865115 -0.19927254 0.22671701 0.06465113 -0.089521505 0.08779935 0.0580716 -0.3302998 -0.13170639 0.011476231 -0.14896324 0.042736407 -0.12821501 -0.2953864 0.2763302 0.29827958 0.07643147 0.16962099 -0.065158576 0.26106644 0.09467377 0.025227455 -0.081875235 0.17368062 -0.06976297 0.2729975 0.059063774 -0.037923418 -0.0086812265 -0.07730239 -0.29632923 -0.14096288 -0.12651059 0.24715564 -0.064587526 0.16137141 -0.03702176 0.1432111 -0.07963132 0.00023087833 0.083848365 0.13568947 0.3410515 -0.31484643 0.15363616 0.13154362 -0.1996803 0.08723435 -0.18382749 0.22710362 -0.18804096 -0.1211876 0.04899979 0.56403893 0.055530183 -0.07654383 0.07405663 -0.039507166 0.27899355 0.120052926 0.30240077 -0.044139188 0.17874584 0.12565361 0.25625443 0.34661278 0.2939462 -0.20722188 -0.102018885 0.3626985 -0.078286596 -0.016066754 0.12017883 0.10410361 0.09729012 -0.29506654 0.008979093 0.053580027 -0.40719792 0.057433292 -0.24218962 -0.09431571 -0.17883523 0.17522973 0.09764213 0.18104894 0.061938792 0.06629507 0.35776025 -0.2211468 0.12524523 0.22825895 0.030164873 -0.054135907 -0.187848 0.1905678 -0.052838303 -0.33157694 -0.045614604 0.3023121 0.110888414 0.43087867 -0.007062948 -0.31383896 0.04805759 0.1329953 -0.215697 -0.19025442 -0.26660153 -0.26554024 0.10910462 -0.3495473 -0.021956077 0.18744428 0.12564456 -0.28036484 -0.32582974 -0.20808543 0.16016836 -0.23710912 0.0539593 -0.48499212 -0.049093626 -0.13570723 0.09758379 0.27788478 -0.26410937 -0.08641979 0.03784579 0.29991385 0.12814142 0.19473428 -0.4973111 0.2067759 -0.20367791 0.16885126 -0.07471071 0.03894905 0.054046843 0.41109106 -0.25997415 -0.09120963 0.20797484 0.12625019 0.09101897 0.14260116 -0.007323353 -0.14057004 0.06715603 -0.16490829 -0.1747459 0.20210727 -0.23012283 0.028618056 -0.100774705 0.08339055 0.5238803 0.3192245 0.086934574 -0.3042037 0.23114124 -0.052179784 -0.321835 0.011212107 0.094654664 -0.21879107 -0.01956705 -0.29299226 -0.092759445 0.022222113 -0.27450904 0.18120034 0.028630389 -0.1653146 -0.10566647 -0.08934536 -0.07125363 0.110514924 0.05714851 0.013175746 -0.00011922588 -0.24289 -0.12922698 -0.17067987 0.009507983 -0.3652348 0.04515946 -0.55292505 -0.34392118 -0.3457055 0.1869444 0.037535712 -0.17018478 -0.16381489 -0.11248377 -0.17150097 0.016676238 -0.17753941 -0.3128771 0.11480474 0.22392423 -0.07051915 -0.17910868 0.10151784 -0.20079155 0.1160518 -0.028275032 -0.13628559 -0.08929705 -0.47920948 0.09277095 -0.10581386 -0.20794079 -0.014809528 -0.00039819584 -0.3196485 -0.09825879 -0.042989545 0.11426439 0.17994444 0.1025322 0.16990934 0.043586083 0.0019870838 -0.52619755 -0.28443134 0.5772161 0.080137454 -0.48918164 -0.107370906 0.054992218 0.026247816 0.14185984 -0.35620204 -0.45273206 0.025761802 0.10963433 0.10547841 -0.30159512 0.09857699 -0.044270154 -0.104150794 0.030706376 0.03606514 0.1975524 0.2054616 0.22462735 0.15903886 -0.32424098 -0.021410203 0.07588479 0.047720455 0.038035452 0.18013273 -0.019723767 0.09221698 -0.35115218 0.17231329 -0.11276407 0.24657393 0.09518382 0.41266656 0.21734805 -0.08638675 0.31126517 0.3454873 0.053491395 -0.17169584 0.14965622 -0.3173362
was -0.054809608 0.29595459 -0.11544709 0.102919534 -0.13066941 -0.2945061 0.21044368 0.57710624 0.040528245 -0.27452722 0.10592794 -0.340911 -0.12558278 -0.07090736 -0.20961341 -0.21744467 0.15272552 0.057493582 0.09116113 -0.0780818 -0.14529376 0.04294164 0.15408322 0.103613354 0.049985126 0.111034244 -0.4037048 0.03731751 -0.15376125 -0.26817498 0.10280534 -0.17311963 0.20226899 0.061391413 -0.079566374 0.078905374 0.056479458 -0.29530707 -0.11498211 0.012767868 -0.13218921 0.036433246 -0.112326995 -0.2652611 0.2518288 0.26595256 0.07033549 0.15241776 -0.051411923 0.23165062 0.0844171 0.024183616 -0.06836013 0.15327816 -0.057604328 0.24885735 0.055660028 -0.030842269 -0.0036862073 -0.06459205 -0.25983498 -0.12773679 -0.110705815 0.2179732 -0.057259537 0.14426449 -0.03948639 0.12221238 -0.070694774 0.0018220869 0.07182287 0.11697437 0.30530116 -0.27818328 0.1370299 0.119851 -0.17673837 0.07708398 -0.16426215 0.19999546 -0.16140176 -0.105627924 0.039399847 0.50403905 0.05351994 -0.06858491 0.06339318 -0.03317849 0.25168788 0.10724669 0.26611617 -0.040197905 0.1593336 0.113059826 0.23166327 0.30578914 0.26696977 -0.19005506 -0.08694516 0.31921834 -0.066143766 -0.013471192 0.10741254 0.0888084 0.086609006 -0.26095238 0.0062812055 0.0490195 -0.36077356 0.055410486 -0.21566372 -0.079224996 -0.1603943 0.15544161 0.08137607 0.16049738 0.06061078 0.060424257 0.3136483 -0.20000033 0.10809266 0.20087786 0.02742474 -0.054004617 -0.1698172 0.16768008 -0.047840487 -0.29778904 -0.043653183 0.27203158 0.10138852 0.38124725 -0.006679959 -0.28054717 0.040620577 0.11773689 -0.19282532 -0.16840741 -0.2342771 -0.24299626 0.094375275 -0.31152984 -0.014705802 0.16792884 0.11094802 -0.25231227 -0.2912307 -0.18765993 0.14390239 -0.21041486 0.04420129 -0.43075776 -0.043277252 -0.12373396 0.086351424 0.24301018 -0.23685856 -0.07562498 0.03002905 0.26711902 0.118817024 0.1726592 -0.44303674 0.18343686 -0.1809504 0.15136757 -0.06263723 0.031976927 0.04687557 0.36118016 -0.23231187 -0.08485773 0.18364649 0.11258447 0.08354197 0.12418734 -0.00736141 -0.1231615 0.059606872 -0.14782788 -0.15108673 0.18089381 -0.20916188 0.029462904 -0.09102917 0.07340043 0.46661484 0.287277 0.07339985 -0.27020934 0.20242845 -0.04643096 -0.28140557 0.0073129646 0.083124 -0.19513366 -0.021012843 -0.25714788 -0.0848786 0.018967709 -0.24610296 0.16123067 0.019836454 -0.14199302 -0.08968427 -0.07686412 -0.058381986 0.09806008 0.04684455 0.015908059 -0.0005450098 -0.21389276 -0.11242201 -0.15342985 0.0036022896 -0.32794082 0.039711855 -0.49299234 -0.30925715 -0.3101134 0.16670997 0.031089816 -0.15029635 -0.14450715 -0.09994297 -0.1591814 0.0146397725 -0.15715532 -0.28056622 0.105462715 0.19751354 -0.06000187 -0.15543087 0.09577718 -0.17981926 0.109106705 -0.031917315 -0.12155793 -0.07681742 -0.42957774 0.08264021 -0.097681984 -0.18767118 -0.010934446 -0.00032132512 -0.28291 -0.08510283 -0.040588945 0.10450346 0.15953046 0.09117428 0.1526573 0.03709433 0.00046439245 -0.46769392 -0.25405455 0.5111697 0.06715159 -0.4406196 -0.09748545 0.04984447 0.021424154 0.12697433 -0.32192352 -0.40637386 0.021044407 0.098827496 0.09660268 -0.27303934 0.086974755 -0.038880177 -0.095181175 0.029375542 0.033623755 0.17174284 0.17936525 0.20095827 0.1416297 -0.2889125 -0.01719451 0.06836747 0.04482004 0.032267075 0.16133112 -0.017949147 0.080358386 -0.31182045 0.15407822 -0.09716776 0.21695657 0.086419605 0.36742017 0.19520779 -0.076691486 0.27655575 0.30331135 0.04555474 -0.15385106 0.13530482 -0.28400734
had -0.055431873 0.31318226 -0.12324876 0.111333475 -0.13044532 -0.30577347 0.22009446 0.60123265 0.046205614 -0.28319177 0.11298977 -0.3614603 -0.13105077 -0.07372134 -0.22030883 -0.2324665 0.16186705 0.054755725 0.09704845 -0.076666184 -0.15165636 0.048704445 0.16526344 0.10864707 0.053974435 0.11699781 -0.4287171 0.041896403 -0.16365181 -0.28020683 0.10723041 -0.18745525 0.20889984 0.060462095 -0.08660283 0.0820144 0.054977063 -0.30280134 -0.120169446 0.010795276 -0.14140633 0.038326263 -0.12482583 -0.27834836 0.25907713 0.28300086 0.06812232 0.16108462 -0.056522373 0.24627705 0.08552484 0.018497813 -0.070968166 0.15835612 -0.060872547 0.25856054 0.058726232 -0.034460966 -0.0070258053 -0.06776268 -0.27811775 -0.13669156 -0.11490998 0.22748004 -0.061292835 0.15034427 -0.042136274 0.13135841 -0.07364087 -0.002236812 0.07843895 0.12759368 0.32193446 -0.29560688 0.14168379 0.121521175 -0.18965586 0.0776557 -0.17433013 0.20602566 -0.1754302 -0.113099225 0.04512987 0.5270607 0.056951422 -0.07554418 0.06587922 -0.036262646 0.26528987 0.111083806 0.2804211 -0.038643304 0.16863532 0.11618459 0.24296266 0.32674292 0.2787912 -0.19538571 -0.096041605 0.33729097 -0.0692341 -0.017235305 0.10925143 0.09662052 0.08798977 -0.2726969 0.010993797 0.04714749 -0.37866902 0.058766615 -0.22482796 -0.08605471 -0.16554745 0.16725941 0.0849203 0.17040521 0.06481101 0.06012064 0.33361372 -0.20814618 0.11881345 0.21145049 0.033570968 -0.050752003 -0.17684656 0.17308165 -0.047611024 -0.31257594 -0.04477939 0.2843455 0.10917491 0.4025983 -0.0003922729 -0.2958279 0.040660728 0.12203186 -0.20237367 -0.17700727 -0.24879254 -0.25326887 0.096531585 -0.32231772 -0.016688542 0.17441756 0.119106285 -0.26010835 -0.30762902 -0.19687642 0.15196796 -0.21663947 0.04333963 -0.4507226 -0.04493867 -0.1304027 0.0912768 0.255097 -0.24667376 -0.07878911 0.032458387 0.2832047 0.12373896 0.17859569 -0.46765268 0.19226578 -0.19616511 0.15510494 -0.072362185 0.034640897 0.054982044 0.3838798 -0.240747 -0.08941965 0.19805288 0.12047656 0.087415375 0.12805326 -0.005456344 -0.13105015 0.059062667 -0.15620999 -0.1608304 0.18521821 -0.22309166 0.031805348 -0.09632959 0.07386172 0.491101 0.29771408 0.077152744 -0.2868206 0.21404997 -0.04622274 -0.2996664 0.007131126 0.08625836 -0.20403214 -0.021789217 -0.2769088 -0.08486394 0.020788614 -0.25763577 0.1669152 0.02321183 -0.15257652 -0.092636496 -0.082431324 -0.0668909 0.102341525 0.04915688 0.014033404 -0.00018689052 -0.22790772 -0.11808823 -0.15827055 0.00863087 -0.34616885 0.04200016 -0.51897585 -0.3285884 -0.32569322 0.17136082 0.03403874 -0.1633482 -0.14852533 -0.098547414 -0.16208942 0.016299965 -0.16312161 -0.294196 0.10626858 0.20354554 -0.062138945 -0.16732565 0.096404605 -0.18497556 0.11121131 -0.0297156 -0.13128702 -0.07942155 -0.44908255 0.0814387 -0.102514975 -0.19349724 -0.01059417 -0.00024801097 -0.2967438 -0.0948364 -0.036453497 0.10586226 0.16651188 0.09630319 0.1589488 0.03737656 0.0018306043 -0.4908478 -0.27002382 0.53957623 0.073658854 -0.45596737 -0.09728124 0.05248701 0.021149354 0.13586232 -0.33291876 -0.42439264 0.020641698 0.100036554 0.10240128 -0.2867832 0.091809765 -0.04015284 -0.09484777 0.028358512 0.03383818 0.17944637 0.1896751 0.21021883 0.14898455 -0.30291608 -0.019486856 0.068263106 0.044939723 0.031520173 0.16794428 -0.020605393 0.08977211 -0.32771075 0.16080974 -0.100950256 0.22840862 0.08766174 0.3907178 0.20697264 -0.07467589 0.29483593 0.32380518 0.048182562 -0.16507445 0.13762435 -0.2986123
it -0.053317342 0.29995674 -0.117185615 0.10955107 -0.12975733 -0.29368606 0.21168418 0.5814126 0.043991905 -0.27176684 0.10585259 -0.34729114 -0.12527955 -0.07571535 -0.21018715 -0.22465113 0.15331715 0.052549306 0.09842394 -0.078575656 -0.1398368 0.040477347 0.15700667 0.10338562 0.051492006 0.11436653 -0.40978888 0.040153746 -0.15781374 -0.27118838 0.10220684 -0.17789765 0.20527333 0.05776702 -0.07991787 0.078782424 0.055641767 -0.29227284 -0.121403836 0.01511429 -0.13430335 0.03530551 -0.11648543 -0.26426497 0.24840207 0.26769915 0.07133849 0.1544938 -0.054627564 0.23529644 0.08238551 0.022201294 -0.069565035 0.15775341 -0.062319413 0.24935119 0.05570315 -0.036596853 -0.008726648 -0.06512922 -0.26252788 -0.13010813 -0.109539114 0.2192077 -0.058970563 0.14447649 -0.038678695 0.12899067 -0.06925138 -0.0042768465 0.07329706 0.119867176 0.30878022 -0.28135756 0.1403261 0.12055111 -0.18047465 0.07908844 -0.16557552 0.20025876 -0.16803344 -0.10842071 0.03935644 0.5059726 0.048515797 -0.07140467 0.06614058 -0.034171946 0.25299287 0.10443724 0.26810953 -0.036482025 0.16232221 0.114534505 0.23579949 0.31286988 0.26303792 -0.18942124 -0.093131304 0.32300794 -0.07037496 -0.019921865 0.111400135 0.09175437 0.086962834 -0.2654444 0.0051705637 0.043773655 -0.3611076 0.052843552 -0.21283345 -0.08485211 -0.15900515 0.15826204 0.08453615 0.15931524 0.05848487 0.057414092 0.32118183 -0.19697218 0.1111919 0.20405105 0.031575624 -0.054365367 -0.16763522 0.16930388 -0.046229683 -0.29602346 -0.044362314 0.2747991 0.10085013 0.3872807 -0.0036000805 -0.28182253 0.039818265 0.11944026 -0.19478846 -0.17089354 -0.23603378 -0.24261533 0.09638907 -0.31548962 -0.014669153 0.17092419 0.11655807 -0.2494513 -0.29452035 -0.18519637 0.14507161 -0.21438546 0.047975726 -0.4295422 -0.036961146 -0.12559286 0.083643846 0.24839127 -0.23913467 -0.07240645 0.034885243 0.2711806 0.11981152 0.17527813 -0.4484047 0.18397231 -0.18183243 0.14857915 -0.06670349 0.03426815 0.05158392 0.36905637 -0.23308507 -0.08138664 0.18651815 0.115492925 0.086819746 0.12749791 -0.0063613215 -0.12701915 0.0620089 -0.14731048 -0.1527024 0.17896432 -0.21140128 0.026015006 -0.09148735 0.074504666 0.46650055 0.28347474 0.07827082 -0.27039096 0.20902108 -0.045808733 -0.28914404 0.0060543874 0.08477632 -0.19736944 -0.019860111 -0.2621545 -0.08478781 0.014041751 -0.24412358 0.16037457 0.02001793 -0.14661919 -0.09205388 -0.080249906 -0.063477084 0.101616554 0.053406257 0.009891736 0.005412447 -0.21530177 -0.117652 -0.15503266 0.0073489207 -0.3275652 0.036666572 -0.49631613 -0.31083646 -0.3137054 0.16309111 0.031765968 -0.1530255 -0.14559421 -0.09577572 -0.15817615 0.016495869 -0.15803559 -0.2823489 0.10564109 0.19763264 -0.06469423 -0.15387797 0.09197011 -0.17848127 0.10662048 -0.031409282 -0.12570202 -0.07596368 -0.43390325 0.08116845 -0.10012281 -0.19009396 -0.013484251 0.0031361268 -0.28754133 -0.08592904 -0.039347418 0.10234278 0.16444083 0.090128265 0.14992754 0.037631422 0.0028407378 -0.4680412 -0.25853893 0.5166939 0.07029146 -0.44311175 -0.09170394 0.048352778 0.024408206 0.12973934 -0.32143414 -0.408517 0.021974798 0.100278094 0.10101808 -0.27600065 0.08799364 -0.037499025 -0.09465044 0.033192623 0.032219537 0.17378716 0.1827775 0.19930217 0.14190196 -0.29139963 -0.021798106 0.07167348 0.04112564 0.031251468 0.16298531 -0.014375664 0.08420025 -0.3132802 0.15290375 -0.09884265 0.22102997 0.08251336 0.37299514 0.19859977 -0.076075904 0.28175417 0.3104499 0.04762424 -0.15526867 0.13841946 -0.29020807
in -0.05597065 0.32181224 -0.12835675 0.11569222 -0.13955721 -0.3202916 0.22758597 0.6310429 0.043434955 -0.2990048 0.11393106 -0.36966363 -0.14009528 -0.07479855 -0.22716293 -0.23821646 0.16584782 0.057861283 0.104370214 -0.081538364 -0.15709306 0.047094334 0.17153458 0.11273724 0.060402323 0.12237136 -0.43953985 0.04210622 -0.16936126 -0.28617242 0.11009521 -0.19492528 0.21825121 0.062375277 -0.08843792 0.090989426 0.054802816 -0.31625184 -0.12625659 0.011238717 -0.14654207 0.040414564 -0.12703438 -0.28516594 0.27462524 0.29350382 0.07329902 0.16737814 -0.06209742 0.25332636 0.08923542 0.025889816 -0.07834404 0.16527152 -0.0651032 0.26936316 0.054576945 -0.038880125 -0.0069054333 -0.07453924 -0.28989625 -0.14067446 -0.12113542 0.23988278 -0.061907947 0.15750533 -0.039298993 0.1365723 -0.07504762 -0.0007566147 0.08226125 0.13009956 0.32850274 -0.30470002 0.15244439 0.12761831 -0.19618541 0.08157606 -0.1774049 0.21704058 -0.17690346 -0.11892633 0.048233252 0.54433775 0.059463818 -0.07491759 0.07195957 -0.039157137 0.27559584 0.11649993 0.28875324 -0.04292836 0.17648286 0.121083 0.24852617 0.33861774 0.28532675 -0.20701477 -0.09285749 0.35094097 -0.076143324 -0.018796347 0.115296245 0.09633491 0.092696615 -0.28689682 0.0066093537 0.054561354 -0.392454 0.056927577 -0.23204654 -0.09244322 -0.17359819 0.17245841 0.0918957 0.1718006 0.061561152 0.06445354 0.34331158 -0.21422039 0.12379801 0.2217493 0.030797223 -0.05459021 -0.18662098 0.18034717 -0.04597841 -0.32773298 -0.047635913 0.29444855 0.107514024 0.41627392 -0.0027555318 -0.30497822 0.042686112 0.12811527 -0.2142107 -0.18610117 -0.25589356 -0.26162562 0.106747836 -0.3378571 -0.015616841 0.18084739 0.12468654 -0.2689088 -0.3169575 -0.20295154 0.15739147 -0.22883092 0.04620841 -0.4722494 -0.044053853 -0.13508815 0.096946605 0.2665523 -0.25352147 -0.08094588 0.03914576 0.28835988 0.12852895 0.18934467 -0.48386067 0.19857523 -0.20287144 0.16691726 -0.07202302 0.039087072 0.05193849 0.39814574 -0.24715307 -0.08957141 0.20556511 0.12458358 0.09370208 0.13980888 -0.0043446906 -0.13683954 0.061067425 -0.15952921 -0.16807139 0.19605467 -0.2277913 0.033446457 -0.093584105 0.08010817 0.50760955 0.31135595 0.08301195 -0.29395458 0.22347555 -0.050401434 -0.30723208 0.008424543 0.09082762 -0.20694602 -0.021872146 -0.28579205 -0.09115631 0.020471815 -0.26259568 0.17527793 0.026521783 -0.15811251 -0.102458686 -0.08699861 -0.06685274 0.105927095 0.05542038 0.012026908 0.004482916 -0.23274247 -0.12539832 -0.16556618 0.006196358 -0.35650346 0.038724802 -0.5332861 -0.33655387 -0.3329611 0.18078497 0.036583662 -0.16574337 -0.1580333 -0.106282644 -0.17289788 0.019364385 -0.1704368 -0.30705467 0.111150265 0.21572512 -0.06672378 -0.16988808 0.098389044 -0.19140372 0.113418445 -0.03264102 -0.13570513 -0.085855685 -0.46981007 0.08377795 -0.104322396 -0.20496742 -0.011623264 0.0018346204 -0.3053258 -0.09364433 -0.042565256 0.11408558 0.1746494 0.10035237 0.16746034 0.036857974 -0.0037233878 -0.5050685 -0.27695513 0.55692863 0.07600355 -0.4775189 -0.10466042 0.052276578 0.028312122 0.13775344 -0.3512171 -0.4413067 0.025612032 0.10422152 0.10366078 -0.29535833 0.09250704 -0.043538976 -0.10275936 0.033938896 0.037589297 0.1872484 0.20115381 0.21793187 0.1495946 -0.3165024 -0.019992212 0.07144505 0.04697154 0.033154003 0.17621578 -0.0203445 0.08753331 -0.33905563 0.16377637 -0.103904344 0.23965773 0.091063865 0.40363833 0.2149924 -0.0806414 0.30170852 0.3332924 0.048594702 -0.16505718 0.14353985 -0.3148817
that -0.052659392 0.3051001 -0.121056154 0.10715948 -0.13157131 -0.29425287 0.2142003 0.5846606 0.044614978 -0.27404237 0.108782776 -0.349856 -0.1260623 -0.07404581 -0.21216407 -0.22098495 0.15430486 0.05889353 0.09571896 -0.07771665 -0.14501654 0.040853843 0.15622093 0.10509665 0.050759774 0.1162541 -0.41076347 0.037901863 -0.15826109 -0.27225474 0.09813695 -0.17907135 0.20800456 0.05800723 -0.08356469 0.08585318 0.056587942 -0.2934989 -0.123492226 0.013804063 -0.13557039 0.04077321 -0.11597031 -0.26887515 0.25627568 0.269662 0.0704637 0.15708104 -0.052960813 0.23854722 0.08290086 0.023235697 -0.07268029 0.15378855 -0.06003419 0.24663864 0.053546123 -0.034031868 -0.0035381445 -0.071170405 -0.26784483 -0.13132823 -0.11448379 0.22098857 -0.056195542 0.14442521 -0.038151402 0.13058795 -0.07148287 -0.0022051956 0.07706848 0.12191008 0.30883846 -0.27991512 0.14166626 0.12215058 -0.17925511 0.07568508 -0.16500482 0.20446569 -0.1686476 -0.11048634 0.041066382 0.50607747 0.05319902 -0.07347783 0.06497018 -0.033574577 0.25479418 0.107978866 0.26706433 -0.036690306 0.16368271 0.11623077 0.23699184 0.31493086 0.26974842 -0.1881135 -0.0905374 0.32677844 -0.06953601 -0.019355072 0.11063994 0.08998299 0.08699039 -0.26674744 0.010830276 0.048770864 -0.36745223 0.053611036 -0.21730304 -0.08410994 -0.16542572 0.15659912 0.08550659 0.16296291 0.059339125 0.061394818 0.32129568 -0.20143507 0.1094656 0.2065652 0.032503117 -0.054761708 -0.17071697 0.17350657 -0.046967085 -0.30196473 -0.04700528 0.27492628 0.101136774 0.3888736 -0.0016130601 -0.2851067 0.038313504 0.11778936 -0.20016834 -0.17335881 -0.24148911 -0.2435747 0.09655173 -0.3153002 -0.017728947 0.17473085 0.1173382 -0.25532898 -0.29206654 -0.19112675 0.14630982 -0.21194184 0.045860376 -0.43745106 -0.040431604 -0.12520242 0.08357802 0.246508 -0.24098149 -0.0748185 0.033347875 0.26860458 0.12058429 0.17680132 -0.45053312 0.18693729 -0.18818688 0.15499401 -0.069215775 0.034045357 0.047750976 0.37010524 -0.23627327 -0.08004247 0.19103482 0.11287871 0.086962014 0.12929773 -0.0073362244 -0.1249366 0.057874333 -0.14892627 -0.15419093 0.18162093 -0.21561414 0.028119894 -0.09007096 0.074469656 0.47586486 0.2871383 0.07318018 -0.27835023 0.20746842 -0.04657724 -0.28785974 0.007828697 0.087907724 -0.19521673 -0.015694315 -0.2634647 -0.08713573 0.016803375 -0.25025028 0.162371 0.021709058 -0.14438204 -0.09359306 -0.07762213 -0.06307827 0.09818567 0.052558716 0.013349376 0.0013677883 -0.2203322 -0.11821248 -0.15422545 0.0032211214 -0.33515596 0.03534355 -0.4946489 -0.3129862 -0.31000096 0.16963047 0.03033833 -0.15425201 -0.14354253 -0.096193515 -0.16008145 0.019322883 -0.16320023 -0.2825421 0.106682315 0.19942011 -0.060676042 -0.1561658 0.09477789 -0.17882337 0.10936068 -0.030086502 -0.12214942 -0.07636673 -0.43786103 0.081920356 -0.09781991 -0.18829796 -0.013709566 -0.0011113316 -0.28670338 -0.08677647 -0.041110262 0.10609901 0.16161034 0.094213836 0.15440114 0.040344823 -0.001352039 -0.47505715 -0.25800282 0.51830965 0.071047164 -0.44628954 -0.09405154 0.050072808 0.022957891 0.13018921 -0.32594672 -0.41138336 0.018051594 0.0991804 0.100733824 -0.2766859 0.09025395 -0.03812042 -0.09712486 0.029854296 0.035676114 0.17275934 0.18718281 0.2035915 0.14511995 -0.290686 -0.019168938 0.069013335 0.041425027 0.036321722 0.15902376 -0.018816022 0.082130864 -0.31361017 0.15111183 -0.098463655 0.22128776 0.08353318 0.3725282 0.19627911 -0.074152805 0.28005624 0.31341186 0.04363612 -0.1603683 0.13383023 -0.2875178
a -0.057596322 0.31964493 -0.12761524 0.11054083 -0.13778958 -0.31226486 0.21964148 0.6135431 0.04214542 -0.2904668 0.11548699 -0.36917767 -0.13532083 -0.07653253 -0.22188053 -0.2380136 0.16604777 0.055024482 0.10318556 -0.07837529 -0.15015033 0.04833877 0.17139037 0.11063102 0.054501377 0.12333099 -0.4372262 0.04075452 -0.16385138 -0.28728122 0.10467252 -0.1898825 0.2167268 0.06569479 -0.08569542 0.08892853 0.05560577 -0.3117316 -0.1289018 0.012538709 -0.14451222 0.040613897 -0.12289909 -0.28077546 0.26545888 0.28799298 0.075928874 0.16179712 -0.06054611 0.24925143 0.086892106 0.025833787 -0.072491094 0.16764182 -0.06118783 0.26062623 0.0563471 -0.039165195 -0.008102288 -0.07543796 -0.2806766 -0.1365554 -0.12110688 0.2362298 -0.060708854 0.15492542 -0.04005488 0.13339937 -0.075872004 0.0014440723 0.079009116 0.12677018 0.32833046 -0.2984267 0.14492793 0.13080975 -0.19235773 0.084258884 -0.1788443 0.21185529 -0.17812324 -0.11588701 0.043771077 0.5367869 0.05626379 -0.071705 0.068674564 -0.035382308 0.2669131 0.113071375 0.28503832 -0.040567435 0.16932905 0.12022683 0.24685118 0.33219773 0.27870283 -0.1988718 -0.096497506 0.34433904 -0.07590333 -0.01883091 0.11356761 0.09310967 0.09228578 -0.28319612 0.0069116442 0.04718284 -0.38364217 0.057056606 -0.23138754 -0.086113654 -0.17582968 0.16610461 0.090939246 0.16834117 0.05782993 0.059778158 0.34123576 -0.20787026 0.119558655 0.21687117 0.033513706 -0.057130866 -0.17855984 0.18202756 -0.04589178 -0.3153503 -0.048977897 0.28964785 0.11072544 0.4095912 -0.007409796 -0.29897374 0.043258913 0.12259397 -0.20910975 -0.17710374 -0.2513887 -0.25547123 0.1008548 -0.32988694 -0.020040402 0.17711402 0.1192024 -0.2696434 -0.31301627 -0.19836412 0.15562133 -0.22382817 0.049585894 -0.46168435 -0.042254988 -0.1323735 0.09444474 0.2654833 -0.2522055 -0.07959277 0.03379116 0.28478622 0.122523904 0.18621697 -0.4775447 0.19380212 -0.19620869 0.16134562 -0.07329607 0.038055047 0.054495193 0.39145988 -0.2477484 -0.08445962 0.20281537 0.12132874 0.0894528 0.13103962 -0.0060949917 -0.13368745 0.06476858 -0.15999945 -0.16743988 0.19351903 -0.2266212 0.032725234 -0.09349063 0.07533337 0.4995589 0.3067982 0.078258336 -0.29340172 0.2226391 -0.049053 -0.30098966 0.0055920742 0.08950566 -0.20351323 -0.019263523 -0.2797862 -0.09139619 0.016293528 -0.2643124 0.17738523 0.022894103 -0.1582511 -0.09559268 -0.08581874 -0.066391625 0.10536612 0.054965496 0.011483275 0.002250971 -0.2322674 -0.119517334 -0.1611027 0.006929363 -0.35251245 0.04186 -0.52448136 -0.33417484 -0.33174896 0.17446056 0.035237253 -0.16698617 -0.15391216 -0.10138794 -0.16894938 0.019757463 -0.16998112 -0.30258763 0.10810448 0.21034442 -0.0646966 -0.16939093 0.097074844 -0.19376254 0.116634324 -0.03085798 -0.12949057 -0.083452605 -0.46324793 0.08503827 -0.10335889 -0.19896777 -0.015041474 -0.0029137984 -0.30467966 -0.0914993 -0.04244773 0.109101124 0.17301774 0.09825562 0.16284877 0.03896068 -0.00015313616 -0.50249785 -0.27552676 0.55216074 0.07115143 -0.47204265 -0.099049814 0.05656787 0.025028456 0.13662481 -0.34418803 -0.43358335 0.019403439 0.10113863 0.1009146 -0.29243866 0.09480702 -0.038349334 -0.10071334 0.03151374 0.038757134 0.1863283 0.19433825 0.21374452 0.15132548 -0.31019646 -0.02292322 0.07734741 0.04835709 0.032842062 0.1686421 -0.018377112 0.08854762 -0.336666 0.16537806 -0.106667146 0.2347912 0.09294271 0.3963582 0.21130475 -0.08067689 0.29594082 0.32850584 0.0466057 -0.16933873 0.14566116 -0.30888003
as -0.05186174 0.29715693 -0.12086902 0.102925315 -0.12546879 -0.2960691 0.21084867 0.57966626 0.046237234 -0.27124643 0.10977812 -0.34100315 -0.12899865 -0.07618312 -0.21193701 -0.22180606 0.15479667 0.056588404 0.09417538 -0.075365044 -0.14432463 0.04130164 0.1601333 0.09927574 0.053420603 0.1123727 -0.40512383 0.038832836 -0.15425843 -0.2699046 0.10312361 -0.17958635 0.2038981 0.06151986 -0.07746482 0.08017709 0.051029224 -0.29636943 -0.11618552 0.01038399 -0.1300501 0.037334163 -0.114099406 -0.2676031 0.251127 0.27041513 0.06535924 0.15685643 -0.0555553 0.23676336 0.0831319 0.022995122 -0.0698439 0.15825643 -0.0637305 0.2517318 0.055937532 -0.033570196 -0.004040699 -0.06633716 -0.26317382 -0.13020451 -0.11015777 0.21914868 -0.055634543 0.14813976 -0.039511427 0.12637502 -0.07316021 -0.0017635535 0.07060978 0.12170783 0.30593503 -0.28123632 0.13920565 0.11632955 -0.17855479 0.0748761 -0.16792136 0.19844036 -0.16855742 -0.105084226 0.038005553 0.50669444 0.05082515 -0.0693167 0.065967865 -0.03735114 0.2496836 0.102177024 0.26465365 -0.03854401 0.15954405 0.11395897 0.2311128 0.30894253 0.26400694 -0.18975754 -0.09103766 0.32208905 -0.07084111 -0.019212037 0.10510704 0.08777688 0.08797048 -0.26622924 0.006411252 0.049759712 -0.36095607 0.05143541 -0.21207072 -0.08590439 -0.1617213 0.15927388 0.08374595 0.16382879 0.05781073 0.05982782 0.32075486 -0.20159568 0.108808935 0.2000073 0.029564962 -0.054130357 -0.17130642 0.16530144 -0.04474203 -0.29915538 -0.040651605 0.26790866 0.100223444 0.38630435 -0.000926493 -0.2798758 0.04155776 0.11385441 -0.19573146 -0.17226124 -0.23928572 -0.24177787 0.095844656 -0.30979624 -0.020286081 0.17049704 0.114020646 -0.251973 -0.29290614 -0.18477418 0.14253542 -0.21060199 0.046347175 -0.43114692 -0.03991788 -0.12145389 0.08894159 0.2470771 -0.2321377 -0.07877569 0.03624226 0.27055597 0.115478635 0.17352152 -0.4454872 0.18563655 -0.18904682 0.15129484 -0.06604596 0.035193015 0.052430227 0.36396182 -0.22843337 -0.08640697 0.18953083 0.11793398 0.08266783 0.12291081 -0.002174754 -0.12901302 0.05664389 -0.15070537 -0.15613274 0.18341556 -0.20758219 0.028623562 -0.085988164 0.07664618 0.47022516 0.28791478 0.07755254 -0.27114144 0.20780519 -0.04388751 -0.2876486 0.012179038 0.087372184 -0.19002403 -0.020817388 -0.26312518 -0.08355677 0.018640075 -0.248257 0.1637388 0.024751434 -0.1416088 -0.09262964 -0.07915844 -0.059442177 0.09872365 0.05183385 0.009114572 0.0021817973 -0.21621 -0.113588616 -0.15750422 0.0041544572 -0.327941 0.038327415 -0.49550727 -0.31015572 -0.30849323 0.16218862 0.035864577 -0.15796956 -0.14438163 -0.09417057 -0.15717612 0.013761442 -0.15886103 -0.2839702 0.09997961 0.19424173 -0.059920203 -0.16035753 0.09476977 -0.18173493 0.10909606 -0.030093385 -0.12571675 -0.07495662 -0.43663254 0.08141942 -0.09786963 -0.19013073 -0.01342939 0.0019236673 -0.28574118 -0.085570075 -0.04202073 0.10324847 0.16116701 0.08906549 0.15107599 0.034502145 -0.0017021991 -0.4699588 -0.2572388 0.5123799 0.065164216 -0.43755922 -0.09524044 0.052340474 0.02471676 0.13092867 -0.32326385 -0.40852642 0.021013213 0.094085865 0.10003208 -0.2691199 0.086195916 -0.036269683 -0.09132592 0.03100162 0.035604503 0.1775303 0.18502231 0.19704448 0.13858947 -0.29042253 -0.020212756 0.07199565 0.03964761 0.032020353 0.1637108 -0.018963791 0.07936265 -0.3119529 0.14951882 -0.10068259 0.21601836 0.08463928 0.3747383 0.19831209 -0.07198792 0.28440434 0.30985832 0.041810155 -0.1529656 0.13022801 -0.28842452
gregor -0.047793344 0.28328794 -0.11245226 0.09741211 -0.11791275 -0.277273 0.1949396 0.54805386 0.041648664 -0.25590095 0.09922678 -0.3202397 -0.1153692 -0.065798506 -0.19377191 -0.20994465 0.14465012 0.051134683 0.09212354 -0.06895509 -0.13241772 0.042523846 0.15087 0.09854393 0.04998113 0.10445723 -0.38488105 0.041551575 -0.1482916 -0.25142407 0.095950715 -0.16957344 0.19342072 0.056973666 -0.07546921 0.08072445 0.050372716 -0.2762976 -0.114826426 0.014695627 -0.12748167 0.03872153 -0.10836942 -0.24960305 0.23327698 0.25797835 0.06375681 0.14671889 -0.05241026 0.21874401 0.07814088 0.017358389 -0.068308026 0.1421782 -0.055233005 0.2334737 0.049538206 -0.030185383 -0.006637633 -0.066037044 -0.24798742 -0.12289402 -0.10394794 0.20944305 -0.054451626 0.13855758 -0.033377543 0.1179458 -0.06766707 0.0014705065 0.06997949 0.1132979 0.28838044 -0.26602623 0.13074619 0.11126556 -0.16680434 0.06988306 -0.15677674 0.19036958 -0.158703 -0.101820596 0.03567126 0.47563934 0.0497899 -0.06485513 0.06132757 -0.032480434 0.23697497 0.098811224 0.2540323 -0.035892975 0.14939184 0.10499942 0.21511804 0.2905409 0.25042874 -0.1762946 -0.085948944 0.30197337 -0.06788918 -0.013718088 0.098719135 0.08751021 0.08436785 -0.24556552 0.0047252215 0.04533438 -0.3439176 0.053955346 -0.20348544 -0.07911459 -0.15081742 0.14724886 0.08135935 0.14966336 0.056477766 0.051680442 0.30154818 -0.18759169 0.10228446 0.19074534 0.02837963 -0.049328826 -0.16127199 0.15492569 -0.044550803 -0.28325608 -0.04400057 0.2538936 0.098795354 0.36103424 -0.006802511 -0.26577023 0.040224064 0.10833021 -0.18468347 -0.1599157 -0.21981876 -0.23022932 0.08738389 -0.29135972 -0.018636674 0.1608639 0.10687434 -0.23209639 -0.27374196 -0.17454612 0.13724196 -0.19720978 0.04306024 -0.40789714 -0.03630154 -0.11450934 0.084467635 0.2312523 -0.22222295 -0.068970606 0.028941968 0.25315788 0.10806466 0.1661393 -0.42396662 0.17393927 -0.17121777 0.14101309 -0.065206885 0.030273004 0.048170764 0.34293422 -0.21520177 -0.07827406 0.17940128 0.107492305 0.07674164 0.11638586 -0.0035574166 -0.120123126 0.05872711 -0.1428499 -0.14754204 0.17024666 -0.1996056 0.023268817 -0.08612931 0.068299785 0.44057742 0.26974934 0.07331139 -0.25500733 0.19592087 -0.04323508 -0.27047735 0.011707249 0.07909116 -0.18083532 -0.017019026 -0.24513002 -0.07738932 0.013503039 -0.23157792 0.15377313 0.021985438 -0.14041802 -0.08493851 -0.073749 -0.058019035 0.092185386 0.045160078 0.014593117 -0.0012937043 -0.20714572 -0.106326625 -0.14807536 0.0046588336 -0.31032202 0.034879956 -0.46700323 -0.29242256 -0.29129267 0.1565704 0.030047648 -0.14325395 -0.13790378 -0.08987561 -0.15053178 0.015342967 -0.15273748 -0.26663822 0.09422845 0.18477164 -0.054672617 -0.14729331 0.08840362 -0.17166807 0.10344212 -0.030469922 -0.11714169 -0.07528024 -0.41026106 0.07690594 -0.09247548 -0.176152 -0.0088141095 -0.0018538614 -0.26772177 -0.0835529 -0.039306242 0.09276031 0.15239275 0.08708024 0.14315358 0.03361793 0.0013150235 -0.44184703 -0.24466428 0.4869897 0.06708278 -0.41716656 -0.08909928 0.049559627 0.021338567 0.120834835 -0.3047623 -0.3800214 0.022397606 0.09257425 0.09068005 -0.2567841 0.079390876 -0.039976336 -0.08564488 0.028005604 0.03135066 0.16629016 0.17092429 0.190486 0.1303859 -0.2745645 -0.01724433 0.06380407 0.03946847 0.028937994 0.14908949 -0.017906578 0.07702815 -0.29109222 0.14610772 -0.09255091 0.20537087 0.07769437 0.35255378 0.1840212 -0.06842861 0.26728213 0.29273945 0.04109121 -0.14447004 0.1285606 -0.27166015
with -0.055898055 0.31527475 -0.120302305 0.1111367 -0.13251214 -0.31049988 0.2162272 0.60642266 0.043117717 -0.28633922 0.109896265 -0.3606231 -0.1293554 -0.07271873 -0.21734698 -0.2305568 0.16054964 0.058565542 0.098417096 -0.083731115 -0.14788051 0.04296393 0.16728409 0.10664122 0.05456883 0.11924421 -0.4300349 0.045379654 -0.1656467 -0.28316742 0.10704385 -0.18469284 0.21378505 0.06353345 -0.08673735 0.08375617 0.055983994 -0.30576074 -0.1256518 0.011968104 -0.13872272 0.04234317 -0.124408364 -0.27995685 0.2623719 0.2832739 0.074266374 0.16352323 -0.061333306 0.24864432 0.08638672 0.021165472 -0.077506125 0.16009471 -0.060232442 0.26118234 0.05262091 -0.03469442 -0.008297257 -0.073950544 -0.2766684 -0.13414495 -0.11619653 0.23350845 -0.058363236 0.15036039 -0.037126202 0.13363664 -0.0736344 0.0017003092 0.075416416 0.12561503 0.322278 -0.29285496 0.14351594 0.12843242 -0.19009206 0.07688183 -0.17783657 0.20955825 -0.17131986 -0.11442105 0.041478902 0.53363264 0.051706802 -0.071749225 0.0708616 -0.038733214 0.26369154 0.11017792 0.28396577 -0.040718295 0.16646464 0.12330914 0.24204835 0.32970414 0.27539048 -0.19606906 -0.09515261 0.33746094 -0.07394264 -0.017224895 0.11268726 0.09457141 0.089152075 -0.2780491 0.007913374 0.05210362 -0.38015735 0.05627621 -0.22750671 -0.08450155 -0.17411509 0.16467354 0.090729445 0.16756926 0.058860995 0.058753125 0.3312208 -0.20561938 0.11805697 0.21310264 0.034977138 -0.057567485 -0.17925309 0.17704998 -0.050128616 -0.3174773 -0.04244203 0.28446567 0.103816345 0.40689665 -0.0066348063 -0.29517752 0.044588715 0.121325925 -0.20907582 -0.17877065 -0.2510586 -0.25307205 0.09910602 -0.3280558 -0.016663818 0.17719924 0.122120395 -0.26077 -0.30748704 -0.19615613 0.15250137 -0.21945938 0.050290354 -0.45559716 -0.04393704 -0.13160332 0.09081606 0.25653028 -0.2482578 -0.08219388 0.03573194 0.28334877 0.12491518 0.1828253 -0.46744055 0.19020344 -0.19079866 0.15857063 -0.0676125 0.038692474 0.052336894 0.38553655 -0.24293512 -0.09036841 0.19564413 0.11942398 0.08515908 0.13379548 -0.0030259453 -0.13248342 0.064799026 -0.15855165 -0.16178584 0.19121766 -0.22335356 0.027224103 -0.09066904 0.07484657 0.4948771 0.3021408 0.07684449 -0.2843457 0.2187096 -0.05086711 -0.30283478 0.005980369 0.09007568 -0.20164429 -0.018834671 -0.27545556 -0.090562925 0.016896209 -0.25606966 0.16871428 0.020246612 -0.1523767 -0.09959876 -0.086417146 -0.06320821 0.10683497 0.0510113 0.015765801 0.005140476 -0.22721641 -0.12308851 -0.15854384 0.0035138195 -0.347316 0.040717963 -0.52076095 -0.33120197 -0.32419428 0.17591694 0.032662887 -0.16350074 -0.149383 -0.10260486 -0.16814844 0.01924032 -0.16859125 -0.29529408 0.10923785 0.21043532 -0.06262403 -0.16282238 0.09514918 -0.18851091 0.11167399 -0.02851044 -0.12617685 -0.07997399 -0.45700282 0.087911375 -0.102127574 -0.19780064 -0.009393968 -0.0026627886 -0.29855657 -0.09062074 -0.038663838 0.10886251 0.16862878 0.092358924 0.15806615 0.042609394 -0.0038448977 -0.49047226 -0.2696649 0.54130644 0.075283185 -0.45869052 -0.096531935 0.05668273 0.021296922 0.13719259 -0.3419946 -0.42960137 0.019338723 0.102632575 0.10513542 -0.28880033 0.08966697 -0.04203675 -0.1005536 0.03067745 0.03742926 0.18462588 0.19282617 0.20831044 0.14818968 -0.30611748 -0.020021109 0.07627778 0.0479845 0.03230828 0.1655382 -0.021881165 0.08465392 -0.3276333 0.15776974 -0.10308868 0.23304433 0.089594476 0.3911319 0.20999688 -0.076323494 0.2950581 0.32102424 0.04682809 -0.16036467 0.14322133 -0.30346772
she -0.0491761 0.29300117 -0.11328698 0.10242621 -0.12396728 -0.28687948 0.20103548 0.56906897 0.038244 -0.2693546 0.10483173 -0.3331343 -0.12366665 -0.06882914 -0.20284379 -0.21565904 0.1476359 0.055520922 0.09090675 -0.07655479 -0.13777886 0.039879136 0.15692016 0.09933049 0.05193996 0.109359816 -0.40167087 0.03829619 -0.14893664 -0.25996533 0.094297186 -0.17608997 0.19960545 0.05602132 -0.076875694 0.08218896 0.048631977 -0.28507385 -0.11344122 0.010965711 -0.12871642 0.03513413 -0.11195542 -0.2572509 0.24665275 0.26152346 0.06868738 0.14940354 -0.054556113 0.231286 0.08188502 0.022573497 -0.07098612 0.15322047 -0.06048339 0.24289796 0.054223005 -0.031958997 -0.0034760765 -0.067495175 -0.25698137 -0.12315682 -0.11013421 0.21585956 -0.059517063 0.14538255 -0.03497952 0.12553851 -0.06676994 0.00012780953 0.070805304 0.1160006 0.29847777 -0.27378893 0.13328597 0.11403269 -0.1773124 0.0773856 -0.15935485 0.19887656 -0.16384894 -0.10488261 0.036677312 0.49604088 0.051356263 -0.06513536 0.061252907 -0.034315012 0.24624464 0.10369219 0.25958672 -0.039532207 0.15755266 0.10798627 0.22823492 0.30697528 0.2578883 -0.18649754 -0.090156175 0.3167728 -0.06565461 -0.01620664 0.10296682 0.09193706 0.08245001 -0.2551682 0.009684748 0.045969862 -0.3587886 0.055284366 -0.212376 -0.082998954 -0.15489279 0.15032393 0.08022992 0.15512714 0.05776118 0.05751082 0.30907148 -0.1952425 0.111437805 0.20151585 0.03273004 -0.050253637 -0.16538998 0.16499084 -0.043052994 -0.2902698 -0.041996956 0.26528698 0.097985104 0.37300125 -0.0013170463 -0.2761891 0.04138461 0.113575734 -0.19211942 -0.16696562 -0.22952971 -0.23875025 0.090760656 -0.30606288 -0.0152045665 0.16836049 0.1103215 -0.24220923 -0.28889158 -0.18349661 0.13910075 -0.20811284 0.046592653 -0.42578655 -0.042632252 -0.12462843 0.08791795 0.24014862 -0.23047863 -0.0760356 0.03229726 0.2633889 0.11384846 0.16863707 -0.43980327 0.18038465 -0.18448547 0.14793673 -0.06539899 0.037291225 0.048635665 0.36017463 -0.22896288 -0.08327765 0.18538712 0.1118776 0.079984814 0.122080095 -0.001584886 -0.12626275 0.057115152 -0.14703432 -0.15098064 0.17939864 -0.20638213 0.024547057 -0.09025612 0.06835793 0.45473313 0.2772876 0.07206438 -0.26745585 0.20078371 -0.0466895 -0.2782736 0.010161556 0.08522317 -0.19143121 -0.01549277 -0.2537662 -0.08323757 0.014224198 -0.24145181 0.15754877 0.02473013 -0.13912661 -0.087088324 -0.08106139 -0.058236893 0.099329405 0.05183781 0.009534554 0.0017689357 -0.21533996 -0.11532448 -0.1496945 0.009375945 -0.31955788 0.034428008 -0.48187715 -0.30655622 -0.29925564 0.15868069 0.034688067 -0.15353307 -0.14239381 -0.09477209 -0.15475282 0.012081473 -0.15610303 -0.2762773 0.09805419 0.19522357 -0.058833543 -0.15061463 0.09404706 -0.17802107 0.10688298 -0.02655878 -0.11903907 -0.07341185 -0.42525014 0.080565065 -0.09459276 -0.18361408 -0.012564465 0.00039093316 -0.27592072 -0.088917986 -0.034641996 0.100792505 0.1576987 0.08789951 0.14903983 0.038845927 0.0018869456 -0.46099105 -0.24794367 0.5023317 0.0640295 -0.42724743 -0.09055922 0.05034218 0.026273822 0.12223236 -0.31667784 -0.39753875 0.019119281 0.09453051 0.096037 -0.26891947 0.08460753 -0.037698817 -0.092381634 0.03087876 0.033930413 0.172839 0.18018539 0.19867218 0.1377522 -0.28274527 -0.020718353 0.06968769 0.043066647 0.032534882 0.15966062 -0.02063763 0.08468303 -0.3053778 0.14789744 -0.09760084 0.21035154 0.081932575 0.3648008 0.19501147 -0.06993507 0.2721036 0.30550203 0.040001668 -0.15116142 0.13374248 -0.28151795
him -0.051683974 0.26998532 -0.10700816 0.0970623 -0.11996397 -0.26740664 0.19194391 0.5314793 0.040338665 -0.24864319 0.094136536 -0.31244358 -0.11354745 -0.069034204 -0.19224395 -0.20223375 0.13960132 0.049623627 0.08523038 -0.06985464 -0.12913004 0.03983675 0.14561953 0.09464145 0.047093254 0.10142803 -0.37015986 0.033679344 -0.14328133 -0.245406 0.08849678 -0.16191018 0.18850075 0.0541941 -0.0710151 0.07487011 0.046517506 -0.26949558 -0.10892051 0.013231092 -0.11902985 0.036828853 -0.10908282 -0.24541585 0.23120745 0.24827054 0.06400316 0.14099571 -0.04704175 0.21129785 0.07938564 0.016477572 -0.0650089 0.14348957 -0.058404706 0.228245 0.047033366 -0.03385783 -0.0047249924 -0.060932547 -0.24257731 -0.11451239 -0.1043648 0.20054066 -0.04968851 0.13336995 -0.0362493 0.116786554 -0.06627113 -0.0011556122 0.068191186 0.11314194 0.2829191 -0.25837344 0.12899834 0.10715948 -0.16105041 0.06698612 -0.15538509 0.18361309 -0.15488254 -0.09943792 0.03676374 0.46159616 0.04387176 -0.06554809 0.056886155 -0.031662412 0.23112877 0.09638695 0.24892928 -0.03530958 0.14946051 0.10659512 0.21485268 0.28498796 0.24205917 -0.17269763 -0.08569688 0.29989415 -0.06467327 -0.012481132 0.09965162 0.08422453 0.07947555 -0.24430713 0.007850377 0.04397264 -0.33581567 0.048151158 -0.1967726 -0.077952035 -0.14673929 0.1442677 0.07881709 0.14467484 0.051009886 0.05515729 0.29370934 -0.17937137 0.10289381 0.18246262 0.030290827 -0.050092638 -0.15855876 0.15662965 -0.042154595 -0.27676633 -0.041166205 0.25030094 0.09172458 0.3534328 -0.003548073 -0.25494608 0.03798694 0.10290773 -0.18023735 -0.15154023 -0.21508211 -0.22286788 0.0899643 -0.28291374 -0.013316481 0.15528004 0.10051403 -0.23065504 -0.26590177 -0.17272635 0.13600619 -0.19603784 0.03856711 -0.39687628 -0.03430075 -0.11681301 0.08213977 0.22215098 -0.21438159 -0.068102255 0.030940369 0.24967323 0.10896655 0.16038725 -0.4078278 0.16996542 -0.16868013 0.14178066 -0.061096728 0.029076155 0.043888554 0.33426607 -0.21493904 -0.07638469 0.17477807 0.10266754 0.078257196 0.11728575 -0.0046030357 -0.11459938 0.05651357 -0.14036879 -0.1396999 0.16794793 -0.19381669 0.023021491 -0.0847237 0.06406918 0.43046135 0.26310778 0.071781926 -0.25100163 0.1890921 -0.041278634 -0.2648679 0.0045215217 0.0784347 -0.18022022 -0.017378643 -0.24157226 -0.07511619 0.014288091 -0.2216297 0.14959204 0.018886115 -0.13451181 -0.08424101 -0.074866086 -0.053918216 0.09390965 0.048292313 0.008690562 -0.000111440626 -0.1993634 -0.105695255 -0.14330842 0.008399601 -0.2994993 0.033364467 -0.45115304 -0.28418738 -0.2826041 0.15342353 0.02921521 -0.1439104 -0.13131718 -0.09155431 -0.14114714 0.011327868 -0.14601028 -0.25960523 0.09535041 0.1824984 -0.05921535 -0.14483757 0.08542921 -0.16344835 0.0999802 -0.026774995 -0.11378313 -0.07354681 -0.39495417 0.071057335 -0.087478906 -0.17321765 -0.013023343 0.002317404 -0.26041448 -0.08337532 -0.039007988 0.093651645 0.14485402 0.08446867 0.14004019 0.03516114 -0.0016994951 -0.42749804 -0.23813319 0.47369495 0.062006664 -0.4029808 -0.084908925 0.045032695 0.020037498 0.11648423 -0.29665363 -0.37155432 0.016880697 0.09051348 0.08685404 -0.2509621 0.07562387 -0.03906637 -0.08636992 0.024410633 0.028995877 0.16009526 0.16796438 0.18436748 0.13206454 -0.26857564 -0.016458737 0.060817745 0.041609365 0.032440666 0.14932483 -0.019580664 0.07686879 -0.28917387 0.13900661 -0.092162035 0.19682755 0.07891146 0.3420166 0.17919624 -0.07080306 0.25875366 0.28164867 0.037514623 -0.14409675 0.12180664 -0.2599212
would -0.053097256 0.28462476 -0.109276235 0.09897663 -0.12155274 -0.27858475 0.19866179 0.5479591 0.039531633 -0.2621869 0.10293728 -0.32884574 -0.12223253 -0.06770562 -0.19730236 -0.20923212 0.14459604 0.052603893 0.09110987 -0.06977821 -0.13647169 0.038950317 0.14670424 0.099972315 0.050374124 0.10574545 -0.38359097 0.041352764 -0.14352795 -0.25518498 0.09254176 -0.16877514 0.18921247 0.058490545 -0.07472903 0.07520133 0.053062003 -0.28103906 -0.10981032 0.009762776 -0.12404207 0.03464521 -0.10948857 -0.24836996 0.23692904 0.25462505 0.06160506 0.14749861 -0.050082296 0.22362049 0.077626325 0.016529858 -0.06397356 0.14414795 -0.056085963 0.23733945 0.048924305 -0.0319677 -0.0070893615 -0.06591956 -0.25256556 -0.12157893 -0.10830543 0.20664266 -0.054947253 0.13937174 -0.034765113 0.12177861 -0.06464822 -0.0028434196 0.0676881 0.1172302 0.29279405 -0.26914784 0.13199039 0.11540763 -0.16644356 0.06907593 -0.15877928 0.19083953 -0.15653239 -0.10220408 0.036963753 0.48079666 0.05143789 -0.06591332 0.059778918 -0.033588436 0.23624104 0.100776896 0.2537209 -0.035209913 0.14874668 0.1073224 0.22165765 0.29653072 0.2528603 -0.1806035 -0.081452176 0.30758128 -0.065350115 -0.013608325 0.09962436 0.08834086 0.08617306 -0.24736543 0.009035515 0.046033524 -0.3454482 0.048144877 -0.20204541 -0.07823905 -0.15554236 0.14882964 0.082242385 0.14954084 0.056436762 0.057971634 0.2987622 -0.18637489 0.10163392 0.18858609 0.03125905 -0.051633798 -0.16275018 0.15637904 -0.045223843 -0.2853229 -0.04134096 0.25734434 0.092996545 0.36062855 -0.004430501 -0.2657357 0.03661057 0.10797636 -0.18376346 -0.15902586 -0.22091676 -0.22727777 0.09021762 -0.2947385 -0.012701512 0.16163427 0.10791832 -0.23710585 -0.2804567 -0.17446363 0.13947664 -0.19974487 0.046173662 -0.41076186 -0.036549367 -0.120561875 0.07862078 0.23371476 -0.22138207 -0.069488466 0.029126925 0.25635898 0.11242097 0.16685523 -0.42422885 0.17535315 -0.17297727 0.13963039 -0.06632059 0.035914592 0.046541594 0.3424291 -0.2207258 -0.077790715 0.18080549 0.107638985 0.07904454 0.11699412 -0.0070485915 -0.11781788 0.056144897 -0.14494145 -0.14512494 0.16705643 -0.20000648 0.02860532 -0.083695546 0.07227028 0.4453881 0.26988757 0.07325134 -0.2559065 0.19755271 -0.040311027 -0.2688359 0.01013798 0.081917055 -0.18396069 -0.018738817 -0.24465823 -0.07857485 0.014411212 -0.2326488 0.15256397 0.025107553 -0.13583341 -0.08612462 -0.073091015 -0.055694483 0.09207204 0.046089105 0.010627431 0.00030583044 -0.20928352 -0.10925145 -0.149025 0.009026695 -0.31300107 0.033233795 -0.4704148 -0.2967378 -0.29616082 0.15586531 0.032323346 -0.14775026 -0.13254029 -0.09288546 -0.1517833 0.013462086 -0.15205908 -0.26993474 0.093494095 0.18539533 -0.05889746 -0.14684404 0.08539385 -0.17194392 0.10217476 -0.027761096 -0.115890294 -0.07361134 -0.40801096 0.07933301 -0.094658524 -0.17723234 -0.008228973 -0.00043237163 -0.26626962 -0.08491437 -0.038049165 0.09417584 0.15622538 0.08258119 0.1426144 0.035294723 -0.0020526138 -0.4407742 -0.2454537 0.48398098 0.06776294 -0.41921106 -0.085226096 0.04577417 0.0245516 0.12098841 -0.30625015 -0.38663596 0.017255599 0.09408729 0.095685504 -0.257909 0.083881795 -0.035286542 -0.087751985 0.029428113 0.028942501 0.16803624 0.17148098 0.18763474 0.13396145 -0.27249742 -0.021856312 0.06539215 0.042873345 0.02786694 0.15468024 -0.01956289 0.0815389 -0.2977142 0.14570826 -0.08984875 0.20334719 0.07984146 0.34946096 0.18908085 -0.06667686 0.26387107 0.29243162 0.040728036 -0.15031745 0.12745921 -0.2752036
her -0.05265955 0.29674786 -0.11578357 0.10961564 -0.12869018 -0.29644296 0.20681863 0.58411545 0.04360947 -0.2710662 0.107494004 -0.34594113 -0.12529501 -0.06997485 -0.20692089 -0.21933012 0.15137245 0.053228356 0.098430164 -0.07965175 -0.14153813 0.046479903 0.15799668 0.10528246 0.05111376 0.11651183 -0.4082775 0.041801795 -0.15887423 -0.26507387 0.10337419 -0.17858744 0.2045643 0.06274771 -0.08160765 0.08446721 0.05200179 -0.29558375 -0.11913545 0.010561868 -0.13347615 0.03585758 -0.11601031 -0.26345468 0.25305328 0.27323094 0.067435645 0.15661186 -0.057454325 0.23366793 0.08767602 0.02315442 -0.07317853 0.1528455 -0.058200713 0.25039077 0.055333726 -0.03634177 -0.0061383257 -0.067866035 -0.26551923 -0.12775691 -0.11366612 0.22164012 -0.059060093 0.14867781 -0.037365194 0.13009158 -0.07117697 -0.00012491405 0.07106992 0.11822608 0.3072592 -0.282825 0.1409545 0.121086836 -0.1817782 0.07929977 -0.16747712 0.19839658 -0.16532585 -0.10868345 0.03731132 0.51037395 0.054777708 -0.06662401 0.06562777 -0.03161567 0.25345796 0.10277216 0.27254304 -0.03852344 0.15804292 0.11743533 0.2311366 0.3157638 0.2629145 -0.18648057 -0.0920288 0.3273427 -0.06670645 -0.014511104 0.10842409 0.089238726 0.08404204 -0.26320672 0.011174853 0.045255516 -0.36310855 0.056564882 -0.21847062 -0.08243478 -0.16483769 0.1556921 0.08515809 0.15883437 0.056426134 0.055722322 0.3169355 -0.20173444 0.115259826 0.20685256 0.030753592 -0.053366613 -0.1694632 0.169338 -0.04794251 -0.3025757 -0.04287965 0.27571872 0.10310635 0.38898373 -0.0014705526 -0.28105828 0.044580676 0.120154716 -0.19425789 -0.16660023 -0.24037543 -0.24149416 0.093105406 -0.31556362 -0.019838909 0.17137319 0.11408546 -0.25361797 -0.29201382 -0.18406162 0.14695565 -0.20863561 0.043705348 -0.43639728 -0.040271364 -0.12561871 0.08456922 0.24859221 -0.23781233 -0.07785312 0.035074823 0.27289885 0.12011136 0.1753134 -0.4459729 0.18570904 -0.18338092 0.15116362 -0.06529843 0.037491724 0.04633431 0.36988065 -0.2327591 -0.08081043 0.18760233 0.11395446 0.0824937 0.1259146 -0.005404998 -0.12840934 0.06030695 -0.14850938 -0.15300849 0.17861757 -0.21346794 0.027010228 -0.08797733 0.07052683 0.47186857 0.28820083 0.07488394 -0.2717425 0.20910516 -0.045915753 -0.28539017 0.0053005293 0.08140657 -0.1961591 -0.014135027 -0.2624438 -0.082007065 0.015423376 -0.24500094 0.16413116 0.022180587 -0.14754635 -0.09046853 -0.083660014 -0.060253896 0.10196598 0.050816704 0.010813609 -0.0003408944 -0.22122873 -0.11776409 -0.15350425 0.004532184 -0.33062816 0.034693923 -0.4966036 -0.31389093 -0.3132874 0.16692571 0.036246795 -0.1540469 -0.1433944 -0.09947308 -0.15907621 0.016147053 -0.1594993 -0.28048357 0.10258789 0.20053665 -0.060422517 -0.15671374 0.096467845 -0.18246573 0.10658109 -0.025978481 -0.12078456 -0.07607841 -0.43638885 0.08342269 -0.09594255 -0.18821536 -0.0071672886 0.0016802863 -0.28411418 -0.087458394 -0.041994616 0.101234406 0.16273415 0.0892179 0.15491852 0.040615298 -0.00347835 -0.47391078 -0.25938064 0.5170983 0.0679064 -0.44193372 -0.09569936 0.05187147 0.027756015 0.12734887 -0.32606587 -0.4059134 0.018874492 0.099942766 0.09946214 -0.27603802 0.083459534 -0.042369694 -0.09358749 0.030550197 0.034700014 0.17466307 0.1855185 0.20147263 0.14121948 -0.2938271 -0.020935979 0.07061359 0.041985538 0.032834064 0.15937486 -0.015914086 0.08193421 -0.31044933 0.15062855 -0.10258335 0.21673962 0.082491495 0.3735573 0.19919382 -0.07363681 0.2852523 0.3097479 0.046362933 -0.15595284 0.13372707 -0.28590986
not -0.04728028 0.27048418 -0.10848643 0.09156663 -0.11524415 -0.2634574 0.18547769 0.5180491 0.036081474 -0.24765374 0.09806046 -0.30906227 -0.11354874 -0.0655818 -0.18752149 -0.2013763 0.13557205 0.048644368 0.088179655 -0.071937166 -0.12970802 0.03850286 0.14257976 0.089429535 0.044979084 0.0990216 -0.36322162 0.032661088 -0.14043537 -0.23968066 0.089699365 -0.16282289 0.18462428 0.053049725 -0.071953736 0.07039813 0.04441474 -0.2614362 -0.10448369 0.012151082 -0.115707085 0.03182789 -0.10480772 -0.23836273 0.22391893 0.24336833 0.061303288 0.134837 -0.047288492 0.21131691 0.07217019 0.020480666 -0.06430666 0.14130463 -0.05313198 0.22248897 0.047615036 -0.03351363 -0.0024332295 -0.06141991 -0.23346674 -0.11346537 -0.10263719 0.1954102 -0.04986884 0.12829883 -0.029804833 0.111469716 -0.06473006 -4.129551e-05 0.06391173 0.105595395 0.27452648 -0.2480878 0.120657824 0.10515784 -0.1623135 0.06834206 -0.15013234 0.18330276 -0.14787161 -0.0951399 0.03523274 0.45323715 0.0460165 -0.06500403 0.05512351 -0.030771047 0.2272794 0.09546398 0.23695709 -0.0358149 0.13958399 0.10320065 0.20361021 0.27922916 0.23746045 -0.16978024 -0.083591044 0.29189855 -0.06215984 -0.018594244 0.09367565 0.08442768 0.07883755 -0.23806648 0.0064042597 0.04430883 -0.32847387 0.04584915 -0.19172838 -0.07859376 -0.14405166 0.14095847 0.07872019 0.1437511 0.052788567 0.053875446 0.282827 -0.17442957 0.098597415 0.18045639 0.023477502 -0.04563464 -0.15004097 0.1509196 -0.043052226 -0.26800013 -0.041155383 0.2445767 0.08808758 0.34510607 -0.0058041303 -0.25295112 0.03426548 0.104657084 -0.1778308 -0.15276757 -0.21335107 -0.21745993 0.08410541 -0.27896217 -0.012669363 0.15178524 0.098991536 -0.2234171 -0.25993457 -0.168867 0.12777102 -0.18701212 0.043214813 -0.3888709 -0.032667648 -0.11478943 0.07480398 0.21802568 -0.21005492 -0.06754325 0.0313614 0.24311039 0.10611285 0.15589316 -0.40291932 0.16114408 -0.16594906 0.13853848 -0.062467046 0.032553107 0.04607116 0.32538545 -0.20955515 -0.076168045 0.16605611 0.099804424 0.07741485 0.10984921 -0.0051514106 -0.11092352 0.053557675 -0.13727525 -0.13917555 0.1623625 -0.18669651 0.02428178 -0.0805156 0.06636852 0.41937217 0.25493854 0.06980337 -0.24652211 0.18619637 -0.044956125 -0.2564001 0.010720439 0.07386065 -0.1706951 -0.01378661 -0.23718488 -0.075292684 0.013334951 -0.22278108 0.14652205 0.02244729 -0.1265673 -0.08500599 -0.07213742 -0.057072878 0.089307755 0.046378627 0.0075063664 0.0025348708 -0.19782728 -0.102890596 -0.13638778 0.0040166834 -0.29447424 0.03316188 -0.44445372 -0.2799336 -0.2751328 0.14389133 0.02650586 -0.1386042 -0.1256809 -0.08636798 -0.13749205 0.011175204 -0.13943763 -0.25454584 0.089355834 0.17404862 -0.054256096 -0.14139107 0.08581872 -0.16124256 0.09736784 -0.023652371 -0.11399103 -0.069509074 -0.3893938 0.06908468 -0.085760824 -0.16769364 -0.011145122 -0.0006900787 -0.25616372 -0.07949037 -0.03469087 0.09477857 0.1465956 0.0801561 0.13731977 0.032547355 -0.0010016172 -0.4213809 -0.23225376 0.46144 0.057963897 -0.39653468 -0.08584219 0.04707898 0.021589074 0.1164262 -0.2853561 -0.36542955 0.016826488 0.09003189 0.08992859 -0.24222709 0.080010004 -0.03247797 -0.085137114 0.027041683 0.032368906 0.15938184 0.16897143 0.17587353 0.1250959 -0.2575597 -0.017177837 0.061888937 0.040975474 0.031854082 0.14127204 -0.017272474 0.07106688 -0.27698156 0.13711521 -0.08890799 0.19595699 0.07850697 0.3365808 0.17870468 -0.0664107 0.2527859 0.27960402 0.039563168 -0.13954459 0.11686268 -0.2563332
but -0.05727447 0.30473265 -0.120679915 0.10723664 -0.12947063 -0.29817286 0.20875347 0.5890612 0.041148353 -0.28008187 0.10925372 -0.34915975 -0.12517172 -0.07583169 -0.21166395 -0.2248163 0.15695181 0.05223432 0.09862327 -0.08108001 -0.14731215 0.04454706 0.16003491 0.10271327 0.051886752 0.11693245 -0.41694513 0.04144675 -0.15592764 -0.27113608 0.10156733 -0.17768736 0.2023737 0.057839047 -0.08067165 0.08581341 0.0509689 -0.30075893 -0.120747626 0.009295197 -0.13354366 0.04183134 -0.120631985 -0.27171773 0.2575651 0.27370942 0.06835048 0.15535565 -0.058792543 0.2360047 0.08268555 0.021664478 -0.07139944 0.15905082 -0.059093572 0.25081006 0.050977305 -0.03369561 -0.008688682 -0.06571785 -0.2668891 -0.13058686 -0.11073962 0.22066486 -0.059514742 0.14655605 -0.03475986 0.13061002 -0.07039997 -0.00033352704 0.07359275 0.12559141 0.30754888 -0.28541046 0.13736604 0.12420756 -0.18228114 0.076210156 -0.1662288 0.20078634 -0.16917326 -0.1075653 0.039339278 0.5143891 0.05256207 -0.07219585 0.067692325 -0.03227612 0.25421438 0.109292865 0.26926354 -0.039092507 0.16568454 0.11765443 0.23548767 0.31435874 0.26991767 -0.19096185 -0.08807829 0.32879505 -0.06804888 -0.018869359 0.10659835 0.091917686 0.08982612 -0.26726252 0.009703275 0.044703662 -0.3716751 0.057418294 -0.21510303 -0.08571095 -0.16574825 0.15784885 0.086029 0.16550575 0.059480835 0.05819275 0.3213194 -0.20148002 0.108943 0.20733964 0.028024897 -0.053738557 -0.17530693 0.17343795 -0.04329052 -0.30278644 -0.04312061 0.27425677 0.10574061 0.3880228 -0.0032662216 -0.2853555 0.045083426 0.12071696 -0.19593333 -0.17138831 -0.23916869 -0.24745737 0.10013925 -0.31974375 -0.01946224 0.17398365 0.11419899 -0.2516428 -0.2992015 -0.18558991 0.14749722 -0.21688692 0.04738554 -0.43950316 -0.038218725 -0.12354179 0.08453082 0.2517738 -0.23726213 -0.07402172 0.03160047 0.27048725 0.1158135 0.17912842 -0.45468578 0.18741511 -0.1861556 0.15529455 -0.06597642 0.035107516 0.051158164 0.37179434 -0.23761936 -0.086012214 0.19013721 0.117479 0.08462725 0.12504047 -0.0046871407 -0.12503155 0.0626041 -0.15164414 -0.15811521 0.18143554 -0.21350066 0.026164066 -0.09357554 0.07379252 0.47548735 0.29094505 0.07773363 -0.27399367 0.20652242 -0.04386282 -0.29074296 0.009307901 0.08393939 -0.19753702 -0.018312277 -0.26851472 -0.08212768 0.018963685 -0.2496656 0.16629072 0.025631439 -0.14942251 -0.0929572 -0.080415525 -0.061306983 0.100062855 0.04802625 0.014666734 0.0015239399 -0.2232587 -0.11609414 -0.15853141 0.008595772 -0.33564767 0.03802501 -0.50044906 -0.31769702 -0.31472003 0.16981019 0.033330493 -0.15940674 -0.14497262 -0.10151952 -0.16076532 0.017636048 -0.16061668 -0.28869575 0.10469786 0.20271057 -0.06460619 -0.1604601 0.093391486 -0.18494956 0.10944345 -0.027226504 -0.12466368 -0.07767778 -0.43943974 0.081330456 -0.100289345 -0.19123988 -0.009338311 0.0008892848 -0.28798467 -0.08606975 -0.038137436 0.100929394 0.1663799 0.09558543 0.1509496 0.040317666 -0.0023095615 -0.47712597 -0.25900638 0.52021205 0.06653729 -0.44906953 -0.099209964 0.0486595 0.027113672 0.13073966 -0.32984075 -0.40924975 0.023458986 0.101571195 0.103141956 -0.27983958 0.0865045 -0.03898699 -0.09484488 0.0322311 0.031786416 0.1782967 0.19076668 0.19978243 0.14632033 -0.29322466 -0.021563265 0.070076466 0.040471684 0.031203147 0.16424753 -0.019593632 0.08726698 -0.3203929 0.152022 -0.09787024 0.22472236 0.08683249 0.38014904 0.20228195 -0.077823505 0.28822288 0.3113821 0.04397145 -0.1599519 0.13841408 -0.29294986
at -0.048314784 0.2775168 -0.10956596 0.09665757 -0.12082938 -0.27516833 0.19469865 0.54031336 0.038611714 -0.2534335 0.09701617 -0.31634638 -0.117217965 -0.06990286 -0.19600831 -0.20265843 0.1430612 0.049289864 0.085582405 -0.073888816 -0.13427952 0.04326878 0.14484847 0.095907584 0.049881388 0.107542224 -0.38279086 0.040372193 -0.14603451 -0.24697007 0.090189196 -0.16369778 0.18536884 0.054617554 -0.07623988 0.07466698 0.048982777 -0.27345037 -0.10806822 0.010052076 -0.12495689 0.032896142 -0.105909415 -0.24538404 0.23658547 0.25312102 0.06260949 0.14625186 -0.05404633 0.21951355 0.07604408 0.01966036 -0.06462849 0.1433659 -0.05824751 0.23007974 0.049093883 -0.029472133 -0.007178896 -0.061615843 -0.24771954 -0.12268756 -0.10575485 0.20530085 -0.050287444 0.13766247 -0.03093707 0.11993754 -0.066844895 -0.0022421102 0.07204569 0.11432712 0.28771424 -0.2596252 0.12839022 0.11217928 -0.17008112 0.073936366 -0.15192775 0.18483508 -0.15432991 -0.0969884 0.039934557 0.47339794 0.05129737 -0.06563714 0.0636765 -0.030049125 0.23394492 0.098841175 0.25390586 -0.032740813 0.14729197 0.10506695 0.21588662 0.29203263 0.24791422 -0.17923194 -0.082484655 0.30541486 -0.06433216 -0.013311076 0.10118388 0.08761766 0.0842986 -0.245179 0.0069293077 0.045903794 -0.34211642 0.05284433 -0.20194833 -0.07391541 -0.15490128 0.14489518 0.08249559 0.14872307 0.05306387 0.055964172 0.30021212 -0.18521965 0.1014942 0.19280997 0.024753068 -0.047941186 -0.15768002 0.15455598 -0.04395887 -0.2823106 -0.039890308 0.25630748 0.091763854 0.358392 -0.001215983 -0.26291993 0.039908744 0.10999859 -0.18449055 -0.15991698 -0.21722922 -0.22634077 0.09275842 -0.29238862 -0.014519007 0.16057608 0.10607579 -0.23244385 -0.27544886 -0.17143613 0.13465014 -0.19850147 0.044061597 -0.40093806 -0.040343676 -0.11540329 0.08242816 0.22906467 -0.21986891 -0.067291826 0.03413471 0.24901746 0.10850527 0.16686663 -0.41804677 0.16767378 -0.17339247 0.1384095 -0.06086827 0.033253137 0.045508683 0.3406063 -0.21279892 -0.07542899 0.17582081 0.10798705 0.08121863 0.11582294 -0.0017385555 -0.11769521 0.052312825 -0.14410491 -0.1446315 0.17131528 -0.19520523 0.023388928 -0.082656726 0.067775205 0.43564004 0.26981205 0.07274457 -0.2550152 0.1932948 -0.042992357 -0.2703059 0.009074278 0.08160413 -0.17938834 -0.015611552 -0.24644834 -0.077305675 0.013660912 -0.22785059 0.15374708 0.02074942 -0.13576433 -0.084999114 -0.07350455 -0.05742928 0.09556075 0.04870528 0.012257464 0.0010531446 -0.20526837 -0.11058385 -0.14465627 0.007284624 -0.3047503 0.03611782 -0.46207237 -0.28967175 -0.29026437 0.15326568 0.03343905 -0.14095698 -0.13436902 -0.0932655 -0.14587568 0.018546619 -0.14567237 -0.26401764 0.09800657 0.18748279 -0.0614686 -0.14414945 0.086803876 -0.16989246 0.10118289 -0.022883343 -0.11757537 -0.070153624 -0.4063168 0.07233376 -0.08830663 -0.17724627 -0.008440569 0.0021829994 -0.26148385 -0.07929437 -0.03868347 0.09680348 0.14725193 0.0845637 0.14518975 0.033088356 0.001367489 -0.4406069 -0.24283746 0.48396605 0.06512075 -0.40788954 -0.08721686 0.047706235 0.023153767 0.11707135 -0.2986018 -0.38093385 0.021371756 0.08833108 0.09177963 -0.25334406 0.079396814 -0.03899335 -0.090075135 0.023781339 0.03525728 0.16147085 0.17167506 0.18294543 0.13031954 -0.27244383 -0.01755645 0.06658612 0.041179437 0.03436918 0.14989181 -0.0133753745 0.07978874 -0.2910993 0.14231275 -0.09449357 0.20340769 0.08026007 0.3443378 0.18458882 -0.07230851 0.2652532 0.28759336 0.04179466 -0.14660248 0.1268513 -0.27045396
for -0.05602832 0.29857486 -0.117491215 0.104970485 -0.12432656 -0.28927228 0.20909725 0.5770468 0.044249102 -0.27406996 0.10746276 -0.3375888 -0.12632546 -0.07114817 -0.20889966 -0.2201794 0.1550127 0.054211125 0.095828235 -0.078105405 -0.13998911 0.042539675 0.1552219 0.1028542 0.055972654 0.1107087 -0.40361866 0.039585564 -0.15661258 -0.2664969 0.09623433 -0.17400287 0.19998027 0.057447355 -0.079909384 0.082725346 0.055567764 -0.29451668 -0.11749125 0.011679891 -0.1322229 0.03778551 -0.11302085 -0.26402065 0.25195926 0.2681957 0.06746533 0.15456654 -0.051724534 0.23268421 0.082520604 0.023223793 -0.07095836 0.1548671 -0.059874386 0.2437728 0.054675538 -0.035479657 -0.0050285733 -0.069205746 -0.26097527 -0.12521985 -0.10830149 0.2145871 -0.05935387 0.14546931 -0.035030194 0.12542489 -0.07195727 -0.0017856475 0.07017065 0.11974949 0.3014738 -0.2779413 0.13770166 0.119115345 -0.18053693 0.07585542 -0.16735202 0.19824141 -0.16340056 -0.103514016 0.03830806 0.5016855 0.054003347 -0.06544191 0.066269524 -0.03650535 0.2503801 0.107902944 0.26710853 -0.036066618 0.15836987 0.11386728 0.23153341 0.31207266 0.26143458 -0.19027154 -0.08668273 0.3193684 -0.06910315 -0.015496512 0.10652759 0.08828418 0.086858 -0.26411402 0.0085975 0.045445725 -0.36310828 0.05475459 -0.2120428 -0.081094615 -0.15966696 0.15155312 0.08747264 0.15773687 0.05697492 0.060435615 0.31598634 -0.19565618 0.11094433 0.20170483 0.0320488 -0.047585722 -0.1694327 0.16557679 -0.04288792 -0.29932362 -0.040284954 0.27011 0.10260168 0.38227865 -0.0042945286 -0.27724776 0.03950082 0.118227415 -0.19261494 -0.16658445 -0.23579709 -0.2425986 0.097643375 -0.30853844 -0.018484589 0.1654394 0.11096728 -0.24806273 -0.29335323 -0.18481433 0.14437479 -0.21252002 0.044791307 -0.4309219 -0.04156803 -0.12396653 0.08252134 0.24297503 -0.23603013 -0.07785384 0.033696543 0.26785213 0.119646445 0.1765743 -0.44610834 0.17896995 -0.18111524 0.15158314 -0.06281708 0.03392632 0.047585137 0.36151797 -0.23285253 -0.08001935 0.18450628 0.11638613 0.08090543 0.12895986 -0.0062652486 -0.121588625 0.056976054 -0.15208247 -0.15043971 0.17516063 -0.21136056 0.029236667 -0.09214767 0.07440379 0.4655624 0.28153375 0.07594373 -0.2703345 0.2073009 -0.0450873 -0.28458303 0.007679064 0.08566334 -0.19447668 -0.01403933 -0.26080626 -0.08426804 0.015590493 -0.24211283 0.15820059 0.023830429 -0.14579912 -0.088414155 -0.08109173 -0.06387319 0.09967605 0.05339829 0.013246753 0.00058644055 -0.2145917 -0.1173006 -0.1537338 0.004680141 -0.32502493 0.03539344 -0.49090806 -0.31078458 -0.30491635 0.16385718 0.035073802 -0.15239508 -0.14018597 -0.0948784 -0.15397277 0.013918158 -0.15735267 -0.27903634 0.103549495 0.19309358 -0.06122763 -0.15394482 0.090704516 -0.18101725 0.10823142 -0.028340802 -0.12236662 -0.07875695 -0.4255682 0.080201164 -0.09533901 -0.1865729 -0.010986021 0.0016357603 -0.2841222 -0.08575704 -0.03980662 0.10423328 0.16099192 0.08823354 0.14984448 0.03503781 0.003053942 -0.46201923 -0.2536046 0.5128699 0.06622887 -0.43412542 -0.095034644 0.04661198 0.021715263 0.12605105 -0.3209257 -0.40351084 0.020772636 0.09637925 0.09430803 -0.26713532 0.085604936 -0.04229887 -0.093725555 0.026287943 0.035940036 0.17176825 0.18530686 0.19950639 0.13878158 -0.28996035 -0.021754919 0.07143394 0.04192811 0.032996416 0.15870462 -0.020869771 0.08347146 -0.31224114 0.15353969 -0.10020869 0.2187417 0.082609214 0.36765978 0.1938916 -0.07289203 0.27887747 0.30585286 0.043751974 -0.15116087 0.13015534 -0.286739
they -0.053562667 0.2864164 -0.112440735 0.0994195 -0.12021203 -0.2823206 0.19945627 0.55508906 0.043251865 -0.2612875 0.10205416 -0.32535902 -0.116246626 -0.070840284 -0.1991389 -0.21225767 0.14437984 0.052443303 0.09129917 -0.07511951 -0.13495417 0.03964744 0.1496065 0.09447733 0.053389892 0.110120304 -0.38921782 0.04113423 -0.1475388 -0.25824636 0.09231694 -0.17057139 0.19027527 0.05940604 -0.07500976 0.07839181 0.04999584 -0.2822256 -0.11049083 0.010144229 -0.12672585 0.034038913 -0.111932784 -0.25627524 0.24001881 0.25480765 0.067793146 0.1439235 -0.05452603 0.22383085 0.07573473 0.022377236 -0.06867703 0.1476597 -0.05494347 0.23721841 0.050446227 -0.03001186 -0.005759497 -0.0627024 -0.24966404 -0.1253066 -0.10523686 0.20493972 -0.054597326 0.1414059 -0.03623095 0.118394144 -0.06598764 0.0014346135 0.07223139 0.11268848 0.29401365 -0.26427364 0.12816122 0.11312443 -0.17059377 0.06908403 -0.1593693 0.19504043 -0.15906313 -0.10503615 0.037713613 0.47666 0.050182503 -0.06381896 0.0613786 -0.034160458 0.24236548 0.097381264 0.25333524 -0.03926507 0.15606041 0.10762575 0.2182872 0.29381448 0.25536427 -0.18047127 -0.087349124 0.3095618 -0.06882834 -0.012608856 0.10485582 0.085217096 0.08143224 -0.25045013 0.004030158 0.046596743 -0.34419706 0.053126205 -0.20686217 -0.079653956 -0.15653461 0.15144983 0.08391278 0.15241009 0.052113764 0.057477284 0.3031404 -0.18770547 0.10308196 0.19214003 0.027417075 -0.046571124 -0.16495363 0.1589791 -0.04296492 -0.28523558 -0.03865332 0.25796598 0.09535039 0.36270636 -0.0078344345 -0.26550022 0.039338816 0.107247844 -0.18355963 -0.15797642 -0.22228827 -0.2312721 0.09110434 -0.29421175 -0.01835365 0.15943621 0.104705326 -0.23667665 -0.28176007 -0.17692234 0.14041035 -0.20019291 0.039398417 -0.40814444 -0.03634862 -0.12138272 0.08412634 0.23670521 -0.22206171 -0.07319697 0.034152623 0.25438318 0.10902606 0.16773024 -0.42798156 0.17358175 -0.17868592 0.1407595 -0.063058324 0.033754397 0.048685305 0.35156456 -0.21908715 -0.08234397 0.17556867 0.10800357 0.07908054 0.11741601 -0.0011236285 -0.118284024 0.053468507 -0.14151388 -0.14713249 0.16925065 -0.19987342 0.028832283 -0.08676499 0.06892665 0.4451071 0.2734907 0.07357976 -0.2624709 0.19273977 -0.044236712 -0.2703929 0.009522377 0.08177874 -0.1841848 -0.016984146 -0.24799809 -0.079625495 0.017959634 -0.23369086 0.15861213 0.020168535 -0.13728286 -0.08679573 -0.0784234 -0.055975575 0.09640109 0.04992392 0.0110557685 0.005427239 -0.20556372 -0.109746456 -0.1454064 0.007870192 -0.3102245 0.036436133 -0.4694156 -0.29782978 -0.29611456 0.15381564 0.030182585 -0.14822242 -0.13497378 -0.09334362 -0.14945748 0.017023664 -0.15324427 -0.26643935 0.09980076 0.18992807 -0.058128685 -0.14973076 0.08904555 -0.17357428 0.10007181 -0.026757656 -0.11773981 -0.07202851 -0.4138488 0.078052655 -0.09365903 -0.17652312 -0.011640317 -0.0014446185 -0.2692132 -0.083738394 -0.037185982 0.096143164 0.15665811 0.0833957 0.14655788 0.03453375 0.003562352 -0.44512725 -0.24326286 0.4884563 0.06435288 -0.42049372 -0.09061481 0.05003468 0.018848743 0.122979045 -0.3051054 -0.38359767 0.018423773 0.094457276 0.09007594 -0.25850093 0.08444905 -0.035435837 -0.091019355 0.027002195 0.029678112 0.1666253 0.17728782 0.18739375 0.13674983 -0.2775546 -0.016758952 0.067845754 0.04174709 0.031153476 0.14948589 -0.01928864 0.07932347 -0.301194 0.14763112 -0.092379436 0.20747252 0.08385656 0.35269323 0.18819901 -0.070999414 0.27058658 0.2948198 0.04037335 -0.14940636 0.12448571 -0.2706499
on -0.049456943 0.2887709 -0.10985596 0.098511636 -0.11880644 -0.28544697 0.20105626 0.5573419 0.04334356 -0.2655662 0.1029618 -0.3320815 -0.1210047 -0.06712906 -0.20475489 -0.20840172 0.14477402 0.055037457 0.088485226 -0.07636567 -0.13992515 0.04415783 0.15109865 0.099242896 0.048998106 0.113173485 -0.39090502 0.037164062 -0.15089701 -0.2537941 0.0971589 -0.17351036 0.19513927 0.056000944 -0.077400684 0.0816346 0.050731413 -0.28263962 -0.11128145 0.009480578 -0.12621981 0.037732933 -0.11544829 -0.2555603 0.24373281 0.25982407 0.069801785 0.14742295 -0.050698157 0.22268334 0.08148618 0.017381277 -0.06745702 0.15161525 -0.058904976 0.2408226 0.047217604 -0.032855153 -0.0040059597 -0.06654309 -0.25205964 -0.12609373 -0.10708501 0.213923 -0.05271877 0.1397364 -0.0315913 0.11821977 -0.06912985 -0.0005626728 0.07010655 0.117470875 0.29731753 -0.27172467 0.13076064 0.118315436 -0.17458731 0.07037934 -0.16052419 0.1902277 -0.15941872 -0.102478534 0.037117653 0.4857493 0.0485001 -0.06737535 0.06394951 -0.031912703 0.24115357 0.10452234 0.258264 -0.033079408 0.15557387 0.11101621 0.22663985 0.29829413 0.2547712 -0.18300335 -0.084313564 0.30950484 -0.06845877 -0.01235291 0.1028496 0.08781579 0.08363011 -0.25306416 0.00760357 0.042377982 -0.34633455 0.054053053 -0.21030311 -0.081862 -0.15612742 0.15019326 0.08072214 0.15736818 0.051921982 0.05506204 0.3080764 -0.19131383 0.10506897 0.19821998 0.031742066 -0.05158604 -0.16707762 0.16171075 -0.04008493 -0.28900704 -0.039275467 0.2609852 0.09923912 0.36941376 -0.0019539148 -0.26577663 0.03760122 0.11421209 -0.19177592 -0.16520587 -0.22522372 -0.23126999 0.094005 -0.30373326 -0.013262517 0.16000055 0.10651762 -0.24011312 -0.2825891 -0.17818627 0.13763873 -0.20493695 0.045367654 -0.41744694 -0.037509095 -0.1202785 0.08309104 0.2383433 -0.22426596 -0.07330088 0.02910052 0.25835449 0.11528402 0.17067818 -0.4319082 0.17755325 -0.17479365 0.14205097 -0.062520966 0.034392085 0.045833472 0.35074335 -0.22035779 -0.08097053 0.17835602 0.11120791 0.08400233 0.12351589 -0.005667388 -0.122054756 0.06017386 -0.14427623 -0.14983113 0.17072344 -0.20353359 0.02897896 -0.0842382 0.068470925 0.45194936 0.2742935 0.07271924 -0.26470226 0.19966342 -0.044182368 -0.27384558 0.0069705797 0.080455296 -0.18639848 -0.017936554 -0.2532036 -0.07736236 0.017883824 -0.23390749 0.15912232 0.022027297 -0.13990884 -0.08501163 -0.07510167 -0.06206965 0.0982521 0.047347393 0.011622088 -0.001065885 -0.21308994 -0.1126622 -0.14648886 0.0065437574 -0.31705233 0.034758464 -0.4725401 -0.29755515 -0.2951598 0.15812293 0.028654821 -0.14564463 -0.13855568 -0.09375765 -0.15014079 0.018675651 -0.15356289 -0.2729121 0.098649934 0.19104269 -0.060327034 -0.15240154 0.092638284 -0.17249712 0.10105192 -0.023159623 -0.1207635 -0.07535683 -0.41482157 0.07516689 -0.09092426 -0.1832984 -0.012534217 -0.0034515965 -0.2719905 -0.08144251 -0.034642123 0.099646084 0.15664499 0.08673933 0.14374131 0.039439794 -0.0032197644 -0.44969866 -0.24719454 0.49563298 0.06478731 -0.42013955 -0.09374599 0.049410254 0.023175307 0.12375687 -0.31185174 -0.3932574 0.01775294 0.09180018 0.09387253 -0.26477554 0.08553 -0.036487684 -0.0926969 0.0269769 0.03078951 0.16511868 0.17780429 0.19140396 0.13907333 -0.27735287 -0.019687159 0.06984628 0.039024573 0.029023632 0.1540945 -0.018954191 0.077903755 -0.30022094 0.14329642 -0.09497429 0.2112667 0.08146768 0.35698795 0.18896344 -0.06888443 0.27106345 0.29515815 0.040717363 -0.15166633 0.12827666 -0.27782297
all -0.050885372 0.26474813 -0.105751306 0.092859626 -0.11468214 -0.26129588 0.18699816 0.5150437 0.041135322 -0.2403319 0.09539047 -0.30405325 -0.10948476 -0.06484067 -0.18239278 -0.19883832 0.13669369 0.05032492 0.08741276 -0.06982609 -0.12374185 0.040415842 0.13868904 0.09415029 0.0454776 0.10340973 -0.3647053 0.0341282 -0.1358803 -0.2373449 0.08609637 -0.15789391 0.17692347 0.055181697 -0.0689373 0.0719758 0.049044967 -0.26197714 -0.10386926 0.011329391 -0.12029471 0.034298588 -0.10548015 -0.23322694 0.22046162 0.24238189 0.060475737 0.13894199 -0.047124483 0.21068424 0.07364005 0.019375162 -0.06193055 0.13656834 -0.054540023 0.22092924 0.050211504 -0.027760947 -0.0046844203 -0.059148416 -0.23502836 -0.11344786 -0.100045115 0.19157478 -0.053127773 0.1301868 -0.035192333 0.114977665 -0.0646125 -0.000907006 0.06278708 0.10947141 0.2733986 -0.24796157 0.121273786 0.10433297 -0.16090314 0.07100474 -0.15033303 0.1801624 -0.1455483 -0.091552235 0.037126824 0.44815233 0.04735533 -0.05969535 0.054054473 -0.032076754 0.22267285 0.09387172 0.23897155 -0.03421751 0.14092426 0.10199184 0.20656608 0.27917314 0.23771797 -0.16685365 -0.07908413 0.2838443 -0.06015921 -0.015876317 0.09647611 0.080783345 0.08035479 -0.23133145 0.010160948 0.0424423 -0.32434183 0.04573852 -0.19305503 -0.07305297 -0.14107049 0.14114189 0.07451489 0.14199415 0.04885039 0.053900454 0.28393307 -0.17541757 0.10179046 0.1764676 0.023641838 -0.042566262 -0.14928941 0.14619905 -0.037064724 -0.26590818 -0.037961267 0.24149688 0.08619805 0.34292758 -0.006449499 -0.25011533 0.039535023 0.105406255 -0.1706904 -0.14828932 -0.2088936 -0.21660475 0.08461768 -0.27698085 -0.014535517 0.15319422 0.102721855 -0.22259466 -0.26115495 -0.1627706 0.1318285 -0.1888267 0.041430146 -0.38081965 -0.03594291 -0.108837076 0.074517846 0.21459256 -0.21119224 -0.06978401 0.02670017 0.23992908 0.1017952 0.15743649 -0.39633718 0.16180281 -0.16746701 0.13190007 -0.05713952 0.034490798 0.043685246 0.3274244 -0.2067112 -0.06979158 0.16583532 0.0988908 0.07538581 0.11185344 -0.0012940612 -0.114317924 0.053735428 -0.13252696 -0.13369201 0.15927315 -0.18735266 0.021837583 -0.077842444 0.06259871 0.41738492 0.25619313 0.069350235 -0.23955138 0.18099244 -0.03792564 -0.25583655 0.010316297 0.07347527 -0.17134394 -0.015836291 -0.23246603 -0.07152662 0.01525934 -0.22085722 0.14737861 0.0212395 -0.13136652 -0.08018462 -0.07128128 -0.052831817 0.087176666 0.047011677 0.012872586 0.00049033767 -0.19660474 -0.102362126 -0.13568872 0.0028659063 -0.29484135 0.033932824 -0.43751058 -0.2781058 -0.2762513 0.14920129 0.031640403 -0.13954331 -0.12954079 -0.086582795 -0.14109519 0.013425318 -0.14380942 -0.2531596 0.08914813 0.17704017 -0.0534544 -0.14279625 0.07969414 -0.16169877 0.09611424 -0.028281476 -0.109187156 -0.06545472 -0.38736102 0.07007631 -0.08321717 -0.16463041 -0.010110054 -0.0016677936 -0.25472292 -0.07909341 -0.03419904 0.0935381 0.14257358 0.08391403 0.1322924 0.03484963 0.0019768423 -0.41844997 -0.22512074 0.45435214 0.06209825 -0.3934913 -0.08401619 0.043930393 0.023021324 0.11463388 -0.2889044 -0.36051002 0.01649765 0.083735846 0.08729578 -0.23869868 0.07378608 -0.031683438 -0.08225753 0.023832807 0.030587493 0.15596026 0.16592136 0.17695795 0.12873057 -0.25873324 -0.020460228 0.05868984 0.03968243 0.028073551 0.13858154 -0.017751794 0.073553786 -0.27413967 0.13349223 -0.08622639 0.19358228 0.078373745 0.33181235 0.17184992 -0.07019193 0.24825203 0.27462897 0.040744733 -0.13553615 0.1202619 -0.25176802
